tree
version=v4
num_class=1
num_tree_per_iteration=1
label_index=0
max_feature_idx=14
objective=binary sigmoid:1
feature_names=Achievements about_length n_screens n_movies n_tags n_languages has_publisher perceived_quality has_support_email has_support_url has_website month day year random_noise
feature_infos=[0:426] [5:94220] [1:78] [1:22] [1:21] [1:103] [0:1] [0:272.33333333333331] [0:1] [0:1] [0:1] [1:12] [1:31] [2023:2025] [-4.0911598115241006:3.956094595284295]
tree_sizes=2971 3283 5247 3320 3408 4899 5144 5997 4277 4487 4344 3407 3824 5560 3203 3193 3194 3194 3184 3377 5475 3080 3092 3634 4596 4629 3293 4827 3386 3204 3088 6093 5020 3275 3192 3511 3815 3277 3736 3100 2969 2981 5044 5995 3426 3199 2768 5568 3075 3304 3437 2780 3423 4012 3733 5352 5317 3321 6521 6547 5830 3740 3646 3932 3399 3650 3294 5047 5885 5325 4593 4148 3716 2895 3219 6008 3624 3821 3174 5325 4938 5967 3315 3004 5780 3490 5901 5279 3291 3102 3433 5705 3666 2662 5814 3636 3632 4901 5533 2871

Tree=0
num_leaves=28
num_cat=0
split_feature=3 5 7 5 7 8 3 12 7 11 3 7 7 11 7 5 5 7 7 5 12 11 7 7 7 12 12
split_gain=343.925 340.212 258.471 108.193 216.241 148.15 39.9547 21.742 19.4222 16.8157 16.4316 13.7797 6.53459 6.2035 5.18902 5.55582 5.0078 4.40822 3.62529 2.82839 2.24332 1.21122 1.74763 0.928071 5.32787 0.628717 0.197037
threshold=3.5000000000000004 6.5000000000000009 24.100000000000005 6.5000000000000009 1.0236363636363639 1.0000000180025095e-35 1.5000000000000002 18.500000000000004 3.0017301038062287 8.5000000000000018 1.5000000000000002 6.4241379310344842 1.3923076923076925 7.5000000000000009 0.21111111111111114 11.500000000000002 1.5000000000000002 14.30729166666667 3.0017301038062287 3.5000000000000004 20.500000000000004 3.5000000000000004 5.4471308833010967 1.1055555555555558 1.5182926829268295 3.5000000000000004 1.5000000000000002
decision_type=2 2 2 2 2 2 2 2 2 2 2 2 2 2 2 2 2 2 2 2 2 2 2 2 2 2 2
left_child=2 12 3 8 14 -6 11 -8 23 -4 17 18 -2 20 -5 -16 -15 19 -7 21 -12 22 -10 26 -25 -26 -1
right_child=1 -3 9 4 5 6 7 -9 10 -11 13 -13 -14 16 15 -17 -18 -19 -20 -21 -22 -23 -24 24 25 -27 -28
leaf_value=-3.8862827354717977 -3.8796166143823689 -3.6431367454497723 -3.8081262955136159 -3.8892590780726031 -3.7133406751121947 -3.8622696403693082 -3.7723099946304988 -3.8395615590860479 -3.8699191927670529 -3.7431808935711879 -3.8819189741800693 -3.8313600076425676 -3.8417614515717498 -3.865814296091008 -3.8887106948218255 -3.8550022468330329 -3.8358935379688872 -3.8671544350533358 -3.8887931860738676 -3.8727592531180752 -3.8614284537733714 -3.8892403047936956 -3.8887785127551715 -3.8645140599955643 -3.8806903617552826 -3.8892494365556596 -3.8893140883314774
leaf_weight=4.0141478516161433 1.2121931631118057 1.5897615253925321 1.2320651821792119 12.042443554848434 1.5897615253925321 1.2519372012466177 1.4307853728532793 1.3512972965836523 1.172449124976999 1.5301454681903122 1.6096335444599383 1.3512972965836523 1.1724491249769924 1.450657391920686 1.2121931631118052 1.311553258448839 1.6891216207295654 2.0666899830102912 1.4109133537858722 2.0865620020776978 1.2121931631118057 9.3199769426137191 1.3711693156510589 1.371169315651058 1.371169315651058 10.472554048523305 80.620781356468797
leaf_count=202 61 80 62 606 80 63 72 68 59 77 81 68 59 73 61 66 85 104 71 105 61 469 69 69 69 527 4057
internal_value=-3.87746 -3.77117 -3.8799 -3.88208 -3.85899 -3.81221 -3.8367 -3.80334 -3.88651 -3.76985 -3.87663 -3.86064 -3.86054 -3.86027 -3.88609 -3.87107 -3.84919 -3.88277 -3.87626 -3.88512 -3.87295 -3.88731 -3.88011 -3.88872 -3.88576 -3.88828 -3.88918
internal_weight=0 3.9744 145.543 142.78 22.9522 8.38599 6.79623 2.78208 119.828 2.76221 21.9785 4.01415 2.38464 5.96161 14.5662 2.52375 3.13978 16.0168 2.66285 13.9502 2.82183 11.8636 2.54362 97.8498 13.2149 11.8437 84.6349
internal_count=7524 200 7324 7185 1155 422 342 140 6030 139 1106 202 120 300 733 127 158 806 134 702 142 597 128 4924 665 596 4259
is_linear=0
shrinkage=1


Tree=1
num_leaves=30
num_cat=0
split_feature=3 0 7 7 7 0 7 1 3 12 7 11 1 11 7 1 11 11 1 0 12 12 1 7 1 1 0 11 7
split_gain=349.755 296.196 154.389 103.046 59.8877 65.3302 31.1485 26.0036 17.4585 16.6896 8.1594 10.5554 7.79987 6.56418 3.971 10.9386 5.40624 2.85244 4.33998 2.97206 1.94309 1.87418 1.41025 0.924595 1.83885 0.644551 0.636781 0.58722 0.576754
threshold=2.5000000000000004 41.500000000000007 28.131578947368421 7.0041322314049594 2.0025000000000004 35.500000000000007 0.33653846153846156 1662.5000000000002 1.5000000000000002 18.500000000000004 11.423684210526318 7.5000000000000009 1533.0000000000002 7.5000000000000009 0.17424242424242423 1997.5000000000002 8.5000000000000018 5.5000000000000009 1296.5000000000002 1.0000000180025095e-35 15.500000000000002 26.500000000000004 1134.5000000000002 0.51131850675139012 859.50000000000011 2102.5000000000005 31.500000000000004 1.5000000000000002 3.0678644202574428
decision_type=2 2 2 2 2 2 2 2 2 2 2 2 2 2 2 2 2 2 2 2 2 2 2 2 2 2 2 2 2
left_child=2 3 4 6 14 8 -2 20 10 12 17 -12 -10 -8 -1 23 -17 18 28 -20 -7 -11 -13 24 -16 -19 27 -25 -6
right_child=1 -3 -4 -5 5 7 13 -9 9 21 11 22 -14 -15 15 16 -18 25 19 -21 -22 -23 -24 26 -26 -27 -28 -29 -30
leaf_value=-0.011852567249640174 -0.011631435074172499 0.19185474518465606 0.094620395785598208 0.11422077974377483 -0.0017802285313360214 0.03461944551573138 0.021806224542780583 0.082150288018015077 0.016347870423968704 -0.011429690545141332 -0.011421521523527378 0.035021742642435807 0.050009880969682299 0.053633368197509523 0.0076541729744892227 0.00057808538541128675 0.030979500307062459 -0.011788594303239221 0.022043743180111961 -0.0024871299675527157 0.013422284955888522 0.0071175214879249764 0.015835377447372144 -0.0039650720794750152 -0.011361815278892462 -0.0030416767785765367 -0.0022941135726689695 -0.011811074385742623 -0.011592990049535526
leaf_weight=80.327911488711834 3.2678978722542507 1.934648735448717 2.0149449333548537 1.6915301643311975 1.1645135376602511 1.2009892817586654 2.0273597501218323 1.7968015316873787 2.0213228147476907 1.7093915529549124 1.6810308080166567 1.1901881881058218 1.8249639440327881 1.720178125426173 1.1652620714157884 1.8653578814119094 1.3088368866592643 10.306621376425026 1.3283367194235327 1.2568915449082849 1.3436589892953632 1.199601639062166 1.2208989355713127 1.5047228243202031 1.497372470796108 1.3405211493372906 1.2304030898958433 14.816465007141231 2.8069877550005913
leaf_count=4088 164 88 92 78 59 59 95 88 99 84 83 59 88 81 59 94 66 521 67 63 66 59 60 76 76 68 62 750 141
internal_value=0 0.0641847 -0.00475996 0.0345861 -0.0062653 0.0072639 0.0144987 0.0489664 0.000934894 0.017212 -0.00403306 0.0106828 0.0328943 0.0370913 -0.010623 -0.00637873 0.0134897 -0.00736775 -0.00121559 0.0103524 0.0240494 -0.00379304 0.0259877 -0.00953239 -0.00305592 -0.0108047 -0.0104998 -0.0111066 -0.00879191
internal_weight=0 10.6416 139.124 8.70697 137.109 33.3927 7.01544 4.34145 29.0513 6.75528 22.296 4.09212 3.84629 3.74754 103.716 23.3884 3.17419 18.2039 6.55673 2.58523 2.54465 2.90899 2.41109 20.2142 2.66263 11.6471 17.5516 16.3212 3.9715
internal_count=7533 506 7027 418 6935 1664 340 213 1451 330 1121 202 187 176 5271 1183 160 919 330 130 125 143 119 1023 135 589 888 826 200
is_linear=0
shrinkage=0.0116245


Tree=2
num_leaves=48
num_cat=0
split_feature=5 3 3 9 3 11 10 11 3 5 14 2 11 14 2 5 5 9 14 14 5 14 14 14 2 14 14 5 5 5 14 11 11 14 2 11 5 11 2 14 11 2 11 14 2 11 11
split_gain=244.878 307.2 90.9215 43.1553 25.773 21.2037 17.212 21.2682 15.1026 21.0095 20.6725 4.84211 4.55195 10.5 4.38248 3.28951 4.64938 2.1344 1.88665 2.3894 3.21604 1.64456 1.52103 2.90735 3.77947 4.91011 2.52361 1.43168 1.39973 0.59674 0.531466 0.407392 1.92492 0.495302 0.353379 0.481396 0.631486 0.448072 0.338427 0.314024 0.887244 1.59973 0.137582 2.03184 0.258709 0.667012 1.45694
threshold=8.5000000000000018 1.5000000000000002 3.5000000000000004 1.0000000180025095e-35 4.5000000000000009 7.5000000000000009 1.0000000180025095e-35 7.5000000000000009 1.5000000000000002 2.5000000000000004 0.6209731113189696 11.500000000000002 8.5000000000000018 -0.80942161456125838 7.5000000000000009 23.500000000000004 12.500000000000002 1.0000000180025095e-35 -1.074661567460552 -1.7166869420935538 1.5000000000000002 -1.2891700631078 -0.30404801071573495 0.28427450998329445 8.5000000000000018 0.051722089020083281 -0.13533053922320934 1.5000000000000002 4.5000000000000009 3.5000000000000004 -0.074599764623419565 5.5000000000000009 3.5000000000000004 0.14498048956494322 10.500000000000002 8.5000000000000018 1.5000000000000002 4.5000000000000009 7.5000000000000009 1.2814628744007801 7.5000000000000009 5.5000000000000009 2.5000000000000004 -0.9155662177639815 6.5000000000000009 8.5000000000000018 10.500000000000002
decision_type=2 2 2 2 2 2 2 2 2 2 2 2 2 2 2 2 2 2 2 2 2 2 2 2 2 2 2 2 2 2 2 2 2 2 2 2 2 2 2 2 2 2 2 2 2 2 2
left_child=4 6 3 -3 8 -5 15 -8 14 12 11 17 31 -14 39 16 38 -11 19 -16 21 -21 29 24 -24 26 -26 30 34 -20 -15 32 -10 -34 35 36 37 -25 -2 42 -41 -42 43 -1 -44 -46 -47
right_child=1 2 -4 5 -6 -7 7 -9 9 10 -12 -13 13 27 18 -17 -18 -19 22 20 -22 -23 23 28 25 -27 -28 -29 -30 -31 -32 -33 33 -35 -36 -37 -38 -39 -40 40 41 -43 44 -45 45 46 -48
leaf_value=0.0025221890628342814 -0.011386209503925694 0.029586203649026553 0.16785705516235641 0.067871388447349038 0.040961343352120171 0.12831410144988434 -0.00089597005267543015 0.053456531896533412 -0.011703688208580181 -0.011391059518048018 0.052268967396789226 0.02238177452395217 0.031868221749350854 -0.0019664782589984011 -0.01137380911741861 -0.01169866688567392 0.014257270670686294 0.0067931979755632378 -0.011766210313034106 -0.011298870547404419 0.01854840317938608 0.0069872794303146094 -0.011551873425602193 -0.006373336734799403 0.0071177663120524622 0.018741228310453165 -0.011484216938925006 0.0054279321016041998 0.0018984680191874072 -0.0033214057123479995 -0.01155446360236086 -0.011708847343250645 -0.0041099599948364596 0.0053683904087238384 -0.011715712579444825 -0.011591735777471548 -0.011416260616016029 0.0014255327964746512 -0.0033721246657401394 -0.011631071782659685 -0.011272606471306625 0.0069461140022444622 -0.01154766242698616 -0.011759747214319702 -0.01171126254699521 0.0036179630364151449 -0.011468598479598259
leaf_weight=1.6047520432621238 1.5764068458229323 2.1955423057079306 1.7484039347618816 2.1297874748706822 1.4884561598300923 1.5976819843053816 2.1243071295320983 1.7253472134470937 4.782309623435145 1.5415303427726021 1.758359035477042 1.6528882496058939 1.2806738950312135 1.1869622468948362 1.535387923941016 4.7646526973694563 2.1888606641441584 1.8430115804076195 8.1146394964307529 1.3278208673000333 1.4885520599782465 1.2090249042958015 2.4655271358788031 2.1946723423898207 1.8124982845038178 2.2383858542889357 2.0129606034606695 1.3231192789971826 1.6797593869268883 1.3863075952976931 2.4101003799587484 4.9171683583408594 1.5337301827967169 1.3284704349935053 5.2539017479866734 2.8281525298953056 1.6897058971226213 1.7426430750638244 1.3940680623054502 3.351734207943081 1.2668617870658638 1.2117779497057197 39.563276732340455 7.6615316942334157 5.173165721818803 1.4861304853111508 1.9236454647034404
leaf_count=82 80 105 64 97 69 72 106 85 241 74 85 77 63 59 78 244 110 87 414 68 75 62 126 112 92 113 103 65 84 70 119 247 77 67 267 144 86 89 69 172 65 62 2027 392 265 75 98
internal_value=0 0.0362513 0.0948626 0.0717019 -0.00610564 0.0955616 0.00331008 0.0239547 -0.00667478 0.00131487 0.0187252 0.00649155 -0.00503472 0.00309298 -0.00867196 -0.00480368 0.00163123 -0.00154855 -0.00559073 0.000671972 0.00537598 -0.00262779 -0.00663208 -0.00504485 0.000400069 0.00533178 -0.0026994 -0.00471986 -0.00805154 -0.0105654 -0.00848312 -0.00904202 -0.00724103 0.000311209 -0.00927397 -0.00767765 -0.00559876 -0.00295501 -0.0077803 -0.0105633 -0.00778471 -0.00241658 -0.0108362 -0.00928603 -0.0111214 -0.00908327 -0.00494941
internal_weight=0 21.4451 7.67142 5.92301 129.27 3.72747 13.7736 3.84965 127.781 25.5583 6.79579 5.03743 18.7625 6.20086 102.223 9.92399 5.15934 3.38454 38.9799 5.56079 4.0254 2.53685 33.4192 23.9182 8.52937 6.06384 3.82546 4.92018 15.3888 9.50095 3.59706 12.5617 7.64451 2.8622 13.7091 8.45517 5.62702 3.93732 2.97047 63.2429 5.83037 2.47864 57.4125 9.26628 48.1462 8.58294 3.40978
internal_count=7583 1032 338 274 6551 169 694 191 6482 1261 323 238 938 306 5221 503 259 161 1983 283 205 130 1700 1216 434 308 195 243 782 484 178 632 385 144 698 431 287 201 149 3238 299 127 2939 474 2465 438 173
is_linear=0
shrinkage=0.0116245


Tree=3
num_leaves=30
num_cat=0
split_feature=0 4 3 4 3 14 3 11 14 0 4 0 4 8 14 0 11 14 14 14 14 11 0 14 14 14 11 14 14
split_gain=259.692 223.758 98.7493 84.7155 80.7467 21.0276 18.6777 14.0501 13.9783 11.2989 8.87859 7.88917 7.88771 12.139 18.7018 6.28092 8.12234 4.21765 1.96523 1.52143 2.80291 4.27665 1.94521 0.942259 0.518978 2.02676 0.514495 0.133995 0.55335
threshold=35.500000000000007 16.500000000000004 2.5000000000000004 19.500000000000004 2.5000000000000004 -0.024854524878322033 1.5000000000000002 8.5000000000000018 0.030570590095199295 10.500000000000002 11.500000000000002 9.5000000000000018 9.5000000000000018 1.0000000180025095e-35 -0.0079460708931571832 16.500000000000004 7.5000000000000009 -1.1952500087899456 1.3055207186357161 -0.43852603682868968 0.2379204799850419 10.500000000000002 7.5000000000000009 -0.13533053922320934 0.81716084509101761 0.60199970470910313 4.5000000000000009 0.45650063893168247 0.64724003222056015
decision_type=2 2 2 2 2 2 2 2 2 2 2 2 2 2 2 2 2 2 2 2 2 2 2 2 2 2 2 2 2
left_child=3 10 8 12 6 -6 17 11 -3 -9 -2 -8 -1 14 -14 18 -17 -5 27 26 22 24 23 -21 25 -22 -19 -15 -29
right_child=1 2 -4 4 5 -7 7 9 -10 -11 -12 -13 13 15 -16 16 -18 19 -20 20 21 -23 -24 -25 -26 -27 -28 28 -30
leaf_value=-0.011849039143442141 -0.011692984605189971 0.082373460860170417 0.1572872937472371 0.013710368274184537 0.032521827365018914 0.087251631444500419 0.024584767652969401 0.014150691445873536 0.04064713007251379 0.061166845563088053 0.021761025281432794 -0.0068403625083094345 0.050163359887007659 -0.011800815197890509 -0.01130647802279339 -0.011445894396711329 0.022127161053087679 -0.002663333904854407 0.0020716910708975149 0.0073423021696988758 -0.01154047482127977 0.013503389828187847 0.013516450120014175 -0.0055595391228630163 -0.011659223202774788 0.0064341210211373472 -0.01160594320001971 -0.0021543862594889662 -0.011601523093081524
leaf_weight=80.076221933588386 4.4695457145571691 2.4086193069815636 2.2049204204231501 2.2371848858893015 2.0444714222103362 1.9344859831035126 1.8686014562845219 1.3037108238786461 2.3829080406576395 1.535768177360296 1.3391913305968044 2.3932290393859148 1.2579282000660899 12.510185295715937 1.3116695024073148 1.7780048046261065 2.0078934896737337 1.2825831957161522 1.6580918505787838 1.1852253302931788 2.3708486706018435 1.3393863495439289 2.2545794397592545 1.9026519451290287 3.7662539910525084 1.2472782917320726 2.9851544834673405 1.2114735767245282 2.9311629012227058
leaf_count=4137 226 111 79 113 88 81 92 62 111 70 63 112 59 636 64 88 96 65 83 60 121 67 113 97 191 63 152 61 149
internal_value=0 0.049578 0.0935342 -0.00504362 0.0116055 0.0601206 0.00450308 0.0206634 0.0624571 0.0403924 -0.00382229 0.00710292 -0.0100788 -0.00431582 0.0192886 -0.00711004 0.00643405 -0.00112386 -0.00992343 -0.00297671 -0.00111571 -0.00516238 0.0054745 -0.000557347 -0.00863769 -0.00533982 -0.00899997 -0.0111212 -0.00891597
internal_weight=0 12.8052 6.99645 136.394 31.6514 3.97896 27.6725 7.10131 4.79153 2.83948 5.80874 4.26183 104.743 24.6664 2.5696 22.0968 3.7859 20.5711 18.3109 18.334 14.0662 8.72377 5.34246 3.08788 7.38438 3.61813 4.26774 16.6528 4.14264
internal_count=7510 590 301 6920 1547 169 1378 336 222 132 289 204 5373 1236 123 1113 184 1042 929 929 712 442 270 157 375 184 217 846 210
is_linear=0
shrinkage=0.0116245


Tree=4
num_leaves=31
num_cat=0
split_feature=0 7 7 8 7 0 7 8 11 14 11 7 2 2 7 11 0 14 14 7 9 7 9 0 7 7 2 7 11 14
split_gain=291.232 173.767 98.966 98.8723 81.9412 33.3092 28.9949 34.7916 24.9058 20.5205 17.9371 11.4717 10.6957 8.07241 6.80348 7.40388 4.00172 3.12458 3.54205 5.16434 3.11023 5.00303 2.62607 2.15488 1.50701 4.69358 6.69152 0.464747 0.483202 0.419064
threshold=25.500000000000004 0.33653846153846156 26.255813953488374 1.0000000180025095e-35 4.0182926829268295 50.500000000000007 1.0236363636363639 1.0000000180025095e-35 6.5000000000000009 0.13566875355588667 6.5000000000000009 8.0036231884057987 12.500000000000002 6.5000000000000009 8.0036231884057987 8.5000000000000018 4.5000000000000009 0.7331217692532398 -0.16825599759697549 2.0025000000000004 1.0000000180025095e-35 3.1981735159817357 1.0000000180025095e-35 47.500000000000007 0.17424242424242423 0.75166168162180136 9.5000000000000018 11.781746031746035 2.5000000000000004 -0.1792903412644726
decision_type=2 2 2 2 2 2 2 2 2 2 2 2 2 2 2 2 2 2 2 2 2 2 2 2 2 2 2 2 2 2
left_child=2 -2 6 9 12 8 24 10 -6 -3 -8 -10 23 27 17 16 -16 18 20 -20 -15 -22 -21 -5 -1 26 29 28 -9 -26
right_child=1 3 -4 4 5 -7 7 13 11 -11 -12 -13 -14 14 15 -17 -18 -19 19 22 21 -23 -24 -25 25 -27 -28 -29 -30 -31
leaf_value=-0.011845408069405768 -0.011741234424905354 0.14596755334704178 0.079405723675704781 0.0062518276455602907 0.018146296718923132 0.10804252414983063 0.062092505861535988 -0.004743534719994902 0.043518419378019209 0.079254278169164097 0.010745956691518595 0.090917586245396753 0.036878707493680468 -0.011649947790832962 0.016172487183857637 0.029063661034651519 -0.011396353419805766 -0.011646208958894235 -0.011247475548636855 0.025404985928060519 0.019034106730219817 -0.011324315793235149 0.0042661213210644184 -0.011370343255403688 -0.0019173485292258889 -0.011782180767024943 0.025201021266873107 -0.0034602737299779958 -0.011779154901640583 -0.011332616378512787
leaf_weight=75.067207761108875 6.4317014571279314 1.7054183986037981 1.7245025653392065 2.5398546680808036 1.8938463442027567 2.1689421404153109 1.6727364305406802 1.6764090023934866 1.4162785038352015 1.4716983959078787 2.0229054987430573 1.8630283903330562 1.3794096354395149 3.5721366517245778 1.2052655536681407 2.2240328826010227 1.5498138852417467 3.4250087942928067 1.2044964339584119 1.8261357825249434 1.4634703230112793 1.3488233648240564 1.4226561170071363 1.3986626863479612 1.1806867681443696 9.8602793719619513 1.2091927379369733 1.4096251446753729 9.4351397883146984 1.4129587486386272
leaf_count=3925 330 64 71 118 84 88 76 85 63 55 95 77 60 180 59 104 74 170 61 91 71 65 69 62 59 506 59 70 483 72
internal_value=0 0.0391333 -0.00641186 0.0597571 0.0447804 0.0697793 -0.0076451 0.00123883 0.0525768 0.117308 0.0346688 0.0717101 0.00983364 -0.00271463 0.00201386 0.0136177 0.000760469 -0.00208114 0.000993915 0.00887995 -0.00454138 0.00454796 0.0164177 -9.05522e-05 -0.0111936 -0.00757277 0.00335651 -0.00995356 -0.010752 -0.00720063
internal_weight=0 22.2688 125.913 15.8371 12.66 7.3421 124.189 35.4587 5.17315 3.17712 3.69564 3.27931 5.31793 31.763 19.2418 4.97911 2.75508 14.2627 10.8377 4.45329 6.38443 2.81229 3.24879 3.93852 88.7303 13.6631 3.80284 12.5212 11.1115 2.59365
internal_count=7446 1001 6445 671 552 312 6374 1753 224 119 171 140 240 1582 944 237 133 707 537 221 316 136 160 180 4621 696 190 638 568 131
is_linear=0
shrinkage=0.0116245


Tree=5
num_leaves=45
num_cat=0
split_feature=0 1 0 8 12 1 2 1 0 12 8 2 1 2 2 10 1 0 12 10 0 1 1 2 12 12 1 2 1 0 12 1 1 12 2 12 0 12 12 12 0 2 1 1
split_gain=298.604 76.0662 41.6967 39.1469 21.9941 18.9705 18.4343 21.777 31.651 14.2456 12.7148 13.3829 13.5053 9.43632 5.45465 5.36359 3.65524 3.09515 2.70778 3.3935 4.42303 4.07086 6.71888 5.71169 3.92509 4.20028 3.61254 3.16291 2.47785 2.43944 2.01372 1.43275 3.99036 1.17642 0.702531 2.14714 0.641028 0.547898 0.545762 1.60483 0.54503 0.50138 0.200899 0.468715
threshold=25.500000000000004 1443.5000000000002 41.500000000000007 1.0000000180025095e-35 8.5000000000000018 2406.5000000000005 6.5000000000000009 656.50000000000011 49.500000000000007 16.500000000000004 1.0000000180025095e-35 9.5000000000000018 1363.5000000000002 9.5000000000000018 6.5000000000000009 1.0000000180025095e-35 738.50000000000011 36.500000000000007 26.500000000000004 1.0000000180025095e-35 1.0000000180025095e-35 986.50000000000011 1725.5000000000002 9.5000000000000018 10.500000000000002 15.500000000000002 906.50000000000011 12.500000000000002 1083.5000000000002 21.500000000000004 21.500000000000004 766.50000000000011 1392.5000000000002 11.500000000000002 7.5000000000000009 7.5000000000000009 16.500000000000004 22.500000000000004 3.5000000000000004 2.5000000000000004 14.500000000000002 12.500000000000002 376.50000000000006 338.50000000000006
decision_type=2 2 2 2 2 2 2 2 2 2 2 2 2 2 2 2 2 2 2 2 2 2 2 2 2 2 2 2 2 2 2 2 2 2 2 2 2 2 2 2 2 2 2 2
left_child=10 6 4 -4 -3 -5 17 -8 28 -6 11 15 -13 -11 29 -1 40 -2 19 20 34 23 41 -21 -24 -26 -22 33 -9 38 -27 -17 -33 -28 35 -18 -20 -36 39 -12 -16 -23 43 -40
right_child=1 2 3 5 9 -7 7 8 -10 13 14 12 -14 -15 16 31 18 -19 36 21 26 22 24 -25 25 30 27 -29 -30 -31 -32 32 -34 -35 37 -37 -38 -39 42 -41 -42 -43 -44 -45
leaf_value=-0.011690321186289047 0.0086024048094645034 -0.0036338813088538703 0.1249097076224441 0.038725173181805884 0.073022487212286782 0.091338638938588332 0.067266990706035062 -0.011513684553610549 0.052553312367004452 0.010342643737330627 -0.011653802089764716 -0.0030821214057225148 0.045220049737628179 0.052142165429416389 -0.011794606808658303 0.016702201559225575 0.0079141383166701565 -0.011566188321923429 -0.011746326778030515 0.031017047929624689 0.016148518177581422 -0.011705400926948899 -0.0058649949726435873 -0.0028172785383646461 0.030216591678741179 -0.0038509641817361341 -0.00044605898092553957 0.0088819479125607677 0.0068214051106252173 0.0038822803134965691 0.015908273073134468 -0.011377038429586185 0.013645191693000403 -0.011630737442915788 -0.011782435768622838 -0.011489020968712847 -0.0025907020793852218 -0.0040917897121444608 -0.011549837471220917 0.0018559776302015088 -0.0042815044183658899 -0.003670286036857691 -0.011837063612668055 -0.0028295467836383053
leaf_weight=4.5517423469573242 1.6748075801879183 1.4322396330535392 1.8072355743497608 2.7030542120337486 1.8590276110917328 1.5168127734214065 1.4117996413260696 2.0286278985440735 2.1092234812676907 1.5375332199037077 3.8274960648268452 1.3439004980027669 1.779245553538203 1.397733027115464 12.274353079497812 1.1818830072879789 1.1494750212878018 2.4565242826938629 6.6913581546396008 1.3074045274406665 1.6215941831469516 4.6904530692845565 2.0017912089824677 1.3044699747115371 1.3330222778022287 1.4813114125281575 2.0387686770409346 2.2128271386027336 1.8384459745138881 1.4604476299136866 1.2171229571104047 1.5446335952728989 1.7867292724549768 3.3313116673380136 10.152300130575894 2.0662156287580729 1.2715013958513735 1.5312359537929285 2.514911193400621 1.6864791009575126 1.570357734337448 1.4471386037766931 44.422607557848096 1.3087744098156688
leaf_count=235 81 62 59 112 79 57 62 96 89 71 201 65 81 59 638 59 60 120 343 65 82 234 101 65 63 74 104 112 83 75 59 79 88 171 525 108 64 79 133 88 80 72 2336 69
internal_value=0 0.0378472 0.0579432 0.0797292 0.0362394 0.058753 0.0162618 0.0271798 0.0170781 0.0480386 -0.00695684 0.00431813 0.0248021 0.0309565 -0.00814416 -0.00286753 -0.00572836 -0.0033833 -0.00416706 -0.00289222 -0.00557595 0.00148904 -0.00135893 0.0144662 0.00731257 0.0138449 0.000759516 -0.00264243 -0.00282883 -0.0107894 0.00522855 0.00607079 0.00204765 -0.00744145 -0.00947598 -0.00453351 -0.0103177 -0.0108032 -0.0111922 -0.0075487 -0.0109668 -0.00987011 -0.0115978 -0.00866378
internal_weight=0 23.7731 12.2536 6.0271 6.22653 4.21987 11.5194 7.3881 5.9763 4.79429 128.103 12.1881 3.12315 2.93527 115.915 9.06499 60.694 4.13133 46.8493 38.8864 24.1037 14.7827 12.1708 2.61187 6.03325 4.03146 9.2045 7.58291 3.86707 55.2207 2.69843 4.51325 3.33136 5.37008 14.8992 3.21569 7.96286 11.6835 53.7603 5.51398 13.8447 6.13759 48.2463 3.82369
internal_count=7638 1030 499 228 271 169 531 330 268 209 6608 607 146 130 6001 461 3099 201 2381 1974 1241 733 603 130 297 196 469 387 179 2902 133 226 167 275 772 168 407 604 2827 289 718 306 2538 202
is_linear=0
shrinkage=0.0116245


Tree=6
num_leaves=47
num_cat=0
split_feature=5 8 6 2 6 5 1 6 1 5 14 12 12 14 1 1 14 2 1 2 14 14 14 12 1 2 1 14 2 14 5 1 1 14 12 2 12 5 14 2 14 14 2 14 14 2
split_gain=237.353 133.043 88.4423 49.2364 43.2965 48.3403 18.7714 12.3391 14.8024 13.4425 12.0666 9.46952 5.08798 4.59377 4.28361 4.21675 4.76831 4.02155 3.47065 3.96095 3.05478 2.45542 3.87173 6.73518 2.54601 2.89979 2.15321 1.75433 1.74767 2.65967 1.67889 2.04603 1.67723 1.61054 1.15646 1.8549 1.03503 1.64055 0.576333 0.517024 0.158411 0.56507 0.0527323 0.193809 0.511002 0.356505
threshold=6.5000000000000009 1.0000000180025095e-35 1.0000000180025095e-35 6.5000000000000009 1.0000000180025095e-35 8.5000000000000018 1725.5000000000002 1.0000000180025095e-35 1778.5000000000002 3.5000000000000004 -0.024854524878322033 18.500000000000004 18.500000000000004 1.623082883599803 385.50000000000006 2012.5000000000002 0.14498048956494322 10.500000000000002 978.50000000000011 8.5000000000000018 -0.83244519140781514 0.91564071663107482 0.09746718133304591 22.500000000000004 1765.5000000000002 14.500000000000002 1014.5000000000001 -0.57447690490107062 7.5000000000000009 0.15715974912540071 1.5000000000000002 1007.5000000000001 1421.5000000000002 0.45650063893168247 3.5000000000000004 5.5000000000000009 19.500000000000004 14.500000000000002 -1.1578538528907745 10.500000000000002 -0.9155662177639815 -1.1205754530630534 6.5000000000000009 0.14498048956494322 0.32850364285672845 7.5000000000000009
decision_type=2 2 2 2 2 2 2 2 2 2 2 2 2 2 2 2 2 2 2 2 2 2 2 2 2 2 2 2 2 2 2 2 2 2 2 2 2 2 2 2 2 2 2 2 2 2
left_child=7 2 -2 20 6 -6 12 18 13 15 -7 -8 17 14 -9 -10 -17 -5 42 26 -3 22 24 32 25 27 -20 39 38 30 31 -30 -24 -34 35 -28 -22 -38 -16 -21 41 -36 -1 -44 -45 -46
right_child=1 3 -4 4 5 10 11 8 9 -11 -12 -13 -14 -15 28 16 -18 -19 19 21 36 -23 23 -25 -26 -27 34 -29 29 -31 -32 -33 33 -35 40 -37 37 -39 -40 -41 -42 -43 43 44 45 -47
leaf_value=-0.011822685232722932 0.019159668229990386 0.0095165337693601301 0.12111867611388873 0.020668923629270908 0.0015221353687829846 0.051065625787693754 0.058878110101099959 0.01320227822904645 0.022834595706324477 0.042350636075724618 0.092270584012534726 0.014701697560314295 -0.011536607320470234 0.016585993364400881 -0.0037287609776605604 -0.011553259232601054 0.013108461941712592 -0.003948583560921994 0.0039219611453134313 -0.0024816660454068848 -0.011675162263551985 -0.011638695670585271 -0.011284038983255744 0.028464535486082562 -0.011701273518438407 0.015253828111467351 0.0076255920537657285 -0.011527124028110123 0.0077764597725795302 -0.011641855830650683 0.0090885148951343128 -0.011458450091590298 0.013296692250650241 -0.0038914640548129327 -0.011596697799903948 -0.011368202988228932 -0.01124600997051136 0.0076315998238909626 -0.011775680451039468 0.0080778436026629225 -0.011816933163839607 -0.0019586490364183803 -0.011787691992722634 -0.0019416648500515114 -0.0056374444983316122 -0.011723406369090595
leaf_weight=26.204979339614511 1.8272906448692108 1.6009610220789907 3.1700047049671412 2.1000441461801516 1.7219052128493775 2.1600860115140676 1.4229565914720299 1.3565962109714842 1.2962162308394898 1.6625617090612648 2.3952719215303659 1.2749817837029693 2.2323964163661003 1.1873529404401768 1.4598291292786676 2.3418230805546045 1.8258391469717024 1.4989843126386402 1.4569108001887823 1.2564149778336284 4.0551828630268592 3.3686423115432254 1.2826293073594559 1.3942238036543129 4.3344646282494068 1.2481888607144354 1.1674848701804905 2.2383019700646423 1.1575679145753368 3.4041355345398188 2.1884693410247564 1.8730176910758016 1.3503870796412232 1.4873663634061811 2.8501535058021545 1.5341503378003833 1.1924509536474945 1.1667642407119272 9.7144289705902267 1.1390618253499267 18.633161965757601 1.1874488573521471 10.897067703306677 1.1847870387136916 1.9282972253859041 5.7761694360524416
leaf_count=1391 75 80 103 99 74 88 63 70 64 76 97 60 109 61 76 114 88 73 76 64 207 170 65 69 210 61 61 113 59 172 105 96 66 72 146 80 60 60 510 58 969 62 565 61 100 301
internal_value=0 0.0306324 0.084573 0.0186111 0.0311288 0.0541528 0.0138981 -0.00697415 -0.000426871 0.0140835 0.0737409 0.0388516 0.00204747 -0.00508326 -0.00634737 0.00507923 -0.000713091 0.0105294 -0.00907126 -0.00679304 -0.004578 -0.00273369 -0.000786086 0.00701286 -0.00501379 -1.05215e-05 -0.00966906 -0.00427883 -0.00772643 -0.0037532 0.00147337 -0.00410229 -0.000580372 0.00440418 -0.0104576 -0.00317412 -0.00815697 -0.00195639 -0.0107525 0.00262146 -0.0113138 -0.00883932 -0.0113334 -0.0106482 -0.00917472 -0.0102611
internal_weight=0 27.8193 4.9973 22.822 14.8066 6.27726 8.52936 121.388 29.4678 7.12644 4.55536 2.69794 5.83142 22.3414 21.154 5.46388 4.16766 3.59903 91.9203 45.929 8.01536 19.0997 15.731 5.51461 10.2164 5.88197 26.8293 4.63378 19.7974 8.62319 5.21905 3.03059 4.12038 2.83775 25.3724 2.70164 6.4144 2.35922 11.1743 2.39548 22.6708 4.0376 45.9913 19.7863 8.88925 7.70447
internal_count=7499 1248 178 1070 663 259 404 6251 1491 342 185 123 281 1149 1088 266 202 172 4760 2342 407 948 778 272 506 296 1394 235 1018 432 260 155 203 138 1318 141 327 120 586 122 1177 208 2418 1027 462 401
is_linear=0
shrinkage=0.0116245


Tree=7
num_leaves=55
num_cat=0
split_feature=3 3 3 12 10 12 2 12 2 2 8 2 12 11 11 11 11 12 11 11 2 2 8 2 11 2 10 2 2 12 2 11 12 11 11 2 2 11 10 2 11 11 12 12 11 12 11 12 12 12 12 12 12 12
split_gain=234.428 42.4903 27.9086 26.7544 31.0637 16.1417 11.9405 11.8743 10.8403 9.7063 9.27268 9.41482 8.17159 9.43797 6.32314 3.92668 3.71141 2.846 2.97299 7.28577 2.52207 6.81345 2.26864 2.21665 1.95432 1.94384 1.77102 1.23259 1.16767 1.90769 2.28839 1.81902 1.21969 2.62778 1.08903 0.895478 1.99645 0.549261 0.51537 1.6048 1.94844 0.886376 0.452822 0.450429 0.427588 0.398234 0.288447 0.343849 1.20996 0.310602 0.275059 0.220151 0.0155037 0.425775
threshold=2.5000000000000004 1.5000000000000002 3.5000000000000004 18.500000000000004 1.0000000180025095e-35 11.500000000000002 7.5000000000000009 13.500000000000002 9.5000000000000018 7.5000000000000009 1.0000000180025095e-35 11.500000000000002 13.500000000000002 4.5000000000000009 9.5000000000000018 8.5000000000000018 3.5000000000000004 10.500000000000002 7.5000000000000009 10.500000000000002 13.500000000000002 9.5000000000000018 1.0000000180025095e-35 8.5000000000000018 9.5000000000000018 8.5000000000000018 1.0000000180025095e-35 12.500000000000002 10.500000000000002 25.500000000000004 16.500000000000004 4.5000000000000009 22.500000000000004 3.5000000000000004 4.5000000000000009 11.500000000000002 14.500000000000002 3.5000000000000004 1.0000000180025095e-35 6.5000000000000009 2.5000000000000004 7.5000000000000009 19.500000000000004 8.5000000000000018 8.5000000000000018 15.500000000000002 11.500000000000002 24.500000000000004 16.500000000000004 20.500000000000004 5.5000000000000009 26.500000000000004 9.5000000000000018 7.5000000000000009
decision_type=2 2 2 2 2 2 2 2 2 2 2 2 2 2 2 2 2 2 2 2 2 2 2 2 2 2 2 2 2 2 2 2 2 2 2 2 2 2 2 2 2 2 2 2 2 2 2 2 2 2 2 2 2 2
left_child=1 9 12 4 5 37 -7 14 -4 22 11 26 -2 -14 25 -15 -5 35 28 20 21 23 24 -20 34 -6 -11 51 32 30 31 -30 -19 -34 -1 43 -37 -3 44 40 -40 -41 -23 -12 52 -21 47 48 50 -50 -46 -18 53 -24
right_child=2 3 8 16 7 6 -8 -9 -10 10 17 -13 13 15 -16 -17 27 18 19 45 -22 42 38 -25 -26 -27 -28 -29 29 -31 -32 -33 33 -35 -36 36 -38 -39 39 41 -42 -43 -44 -45 46 -47 -48 -49 49 -51 -52 -53 -54 -55
leaf_value=-0.00015098605828020153 0.049656852995762363 -0.0024105823409977683 0.043787505282163672 0.0095718348408965221 0.028740217745502457 -0.0024961312297793821 0.043547286049818237 0.065718367116325629 0.080387768545034016 0.015335149222129838 -0.011753897919152637 -0.011284582104400621 0.047757876373962387 0.00093544744647308816 0.048663475612619599 0.024875278925977299 -0.011675528693912349 -0.01170367119152803 0.007871230903975051 -0.0040896331324404124 0.021583569646515758 -0.0018679592727968383 -0.011747736986990455 0.027616377240028817 0.007538735619381092 0.0095354798240899503 0.035580970282483186 0.00097539030257916834 -0.00057620414422121708 -0.011447497611576438 -0.011247239421781742 0.015587710614906129 0.0071680068472673719 -0.011505703967888026 -0.011565424562965295 0.0037608106493804703 -0.011529126306009017 -0.011635052739060209 0.0014284933443184358 -0.005455918393477064 -0.011778747912590681 0.0070346301278062934 -0.011399288404060272 -0.0048426370453875022 -0.0060919784361346332 -0.011603840840280074 -0.011671453733444049 -0.011580678957048464 0.0025918344823082206 -0.0044943205448379452 -0.0116588582918694 -0.006762439014646621 -0.011813684217467861 -0.0051548432287042501
leaf_weight=1.985478214919566 2.5884039755910617 1.2466685920953766 2.031611829996109 2.1388385295867911 1.3839564248919489 1.2576509173959496 1.8353808708488939 1.7408321388065813 3.4638676960021257 1.2442457173019643 7.2840393483638746 1.2548907846212385 1.5048340409994123 1.8025792818516495 1.4817197415977714 1.8491217400878666 3.8440689761191589 5.023258253932001 1.7404332235455495 1.5292347166687248 1.6942597758024929 1.1740128211677077 7.5624409187585133 1.4258267469704151 1.7709105610847471 1.5972136184573171 1.4194721952080727 1.8029565047472713 2.0634341686964031 1.8279015012085436 1.2091516219079492 1.6561769116669891 1.8076487295329573 2.1727655455470085 2.5591332353651524 2.2164342142641535 2.2867381200194359 3.1938498802483082 1.7435624934732903 1.8723975419998162 10.565725047141312 1.2054035421460865 1.6157732810825107 1.7021397519856689 2.0871066991239804 3.0051093604415655 4.3111500013619652 2.8177896235138169 1.597336493432522 1.6192001514136789 3.9597319513559341 2.3613064996898174 21.316036406904459 1.7872344329953191
leaf_count=102 104 64 75 107 66 63 87 76 116 61 376 61 64 77 63 73 189 262 88 77 82 58 405 72 89 72 65 86 106 94 62 84 93 114 131 114 117 157 93 98 562 61 82 88 110 156 231 150 84 85 210 117 1142 96
internal_value=0 -0.00360553 0.0474834 0.0104743 0.0210097 0.00505349 0.0251649 0.0401289 0.0675378 -0.00655684 -0.00237755 0.0145668 0.0328028 0.0238216 0.0293343 0.0132845 -0.00383226 -0.00400068 -0.00187544 0.00242957 0.00932115 0.0056345 -0.00930848 0.0171455 -0.00263615 0.0188807 0.0267239 -0.0074612 -0.00519999 -0.00152505 0.00225755 0.00676726 -0.0079266 -0.00304673 -0.00665222 -0.00837279 -0.00405793 -0.00911858 -0.0099798 -0.00804211 -0.00991035 -0.000519046 -0.00752423 -0.0104897 -0.0106012 -0.00916473 -0.00898029 -0.00796172 -0.00678668 -0.000993982 -0.009824 -0.00989688 -0.0114465 -0.0105325
internal_weight=0 137.998 13.2404 23.8844 13.7373 7.53355 3.09303 6.20372 5.49548 114.114 45.3529 3.91861 7.74494 5.15654 4.46289 3.6517 10.1472 41.4343 27.945 12.1846 7.65031 5.95605 68.7606 3.16626 6.31552 2.98117 2.66372 8.00833 15.7603 6.75666 4.92876 3.71961 9.00367 3.98041 4.54461 13.4894 4.50317 4.44052 62.4451 15.3871 12.3093 3.0778 2.78979 8.98618 47.058 4.53434 16.3923 12.0812 9.26338 3.21654 6.04684 6.20538 30.6657 9.34968
internal_count=7617 7108 509 1147 648 371 150 277 191 5961 2312 187 318 214 201 150 499 2125 1430 615 382 300 3649 160 322 138 126 392 815 346 252 190 469 207 233 695 231 221 3327 814 655 159 140 464 2513 233 870 639 489 169 320 306 1643 501
is_linear=0
shrinkage=0.0116245


Tree=8
num_leaves=39
num_cat=0
split_feature=0 3 6 0 3 6 3 9 0 0 3 2 0 0 0 2 10 11 2 0 11 6 10 2 0 0 2 11 6 2 2 0 9 2 9 11 3 11
split_gain=199.808 147.313 67.934 57.8043 27.5984 35.5783 12.3242 15.9547 9.35261 6.88245 8.51823 5.39133 4.78788 3.64392 3.28985 3.0927 2.99265 2.78105 3.77708 5.22503 22.8649 2.46631 2.76516 2.03178 2.01302 3.74613 1.92165 3.52207 1.61965 0.92514 0.73357 0.565636 0.544986 1.16967 0.35128 0.599216 0.27773 0.00791005
threshold=25.500000000000004 3.5000000000000004 1.0000000180025095e-35 41.500000000000007 1.5000000000000002 1.0000000180025095e-35 1.5000000000000002 1.0000000180025095e-35 51.500000000000007 12.500000000000002 2.5000000000000004 7.5000000000000009 35.500000000000007 30.500000000000004 19.500000000000004 6.5000000000000009 1.0000000180025095e-35 7.5000000000000009 9.5000000000000018 7.5000000000000009 9.5000000000000018 1.0000000180025095e-35 1.0000000180025095e-35 6.5000000000000009 50.500000000000007 90.500000000000014 8.5000000000000018 5.5000000000000009 1.0000000180025095e-35 8.5000000000000018 8.5000000000000018 9.5000000000000018 1.0000000180025095e-35 12.500000000000002 1.0000000180025095e-35 9.5000000000000018 2.5000000000000004 6.5000000000000009
decision_type=2 2 2 2 2 2 2 2 2 2 2 2 2 2 2 2 2 2 2 2 2 2 2 2 2 2 2 2 2 2 2 2 2 2 2 2 2 2
left_child=4 2 6 12 15 14 24 -8 -5 10 11 -7 13 -4 16 -1 36 21 19 28 -21 -17 31 -18 30 -26 -25 -28 34 -24 -2 -23 -20 -34 35 -19 -6 -32
right_child=1 -3 3 8 5 9 7 -9 -10 -11 -12 -13 -14 -15 -16 17 23 18 32 20 -22 22 29 26 25 -27 27 -29 -30 -31 37 -33 33 -35 -36 -37 -38 -39
leaf_value=-0.011384930672918528 -0.011648668430560271 0.10925298919567096 0.020161941407804414 0.097972336056969062 -0.011753474452059395 0.0040962688222589139 -0.0053633448612894156 0.04084178646055938 0.056929871410771896 0.0091140209434337066 0.05513443328739414 0.032863580145946515 0.034383122452264027 -0.0040591536985059695 0.011466659138987525 -0.011813121480368682 -0.011438380686027851 -0.011308071441792524 -0.011720395188598088 0.050469423827717616 -0.011485557276625502 -0.0116300599445527 -0.0020502099365066707 0.011906096522195918 0.014225046316826325 -0.011300039061364744 0.011322136729557857 -0.011543003413115753 0.0038466338970728191 0.011499116968307972 -0.0042464483548601481 -0.0023327444962956438 -0.011516933663459366 0.0010246374225048426 -0.011499494790730596 -0.0016673817062255142 -0.0068076414430918884 -0.0026357547403805617
leaf_weight=51.875664055347443 3.4855442512780446 2.7166931480169287 1.7699842881411316 1.8434760160744192 7.3105500750243753 1.4394342098385089 1.8300084043294202 2.1501911655068398 1.9701910074800251 2.7329115718603134 1.5052366703748701 2.2888216283172369 1.4557148497551677 1.5116617884486911 1.4601252079009999 20.05225003883243 1.7492224238812912 1.3670602235943099 5.64026280492544 1.2516444586217406 2.0206736642867327 3.4277468379586926 1.1987026706337931 1.921147847548127 1.7435209956020119 1.2988447826355694 1.4704779013991358 2.1714926157146692 2.2045034021139145 1.4597478676587341 1.5586336702108385 1.235866632312536 2.1836352255195384 1.7979677338153122 2.1341627556830645 2.2934595141559839 2.3770226836204529 1.2740066666156051
leaf_count=2811 174 66 75 63 378 73 81 82 76 114 60 105 55 64 67 1067 87 72 294 61 104 181 62 91 78 64 70 100 115 73 74 63 111 90 112 122 112 58
internal_value=0 0.0295376 0.0193463 0.0447879 -0.00662096 0.00393813 0.00289863 0.0198569 0.0780994 0.0243634 0.0321138 0.0220215 0.0172662 0.00914475 -0.00493182 -0.00940811 -0.00637921 -0.00727088 -0.00405789 0.000514118 0.0127416 -0.00970751 -0.00388703 -0.000750189 -0.00440081 0.00331933 0.0027053 -0.00227377 -0.0045513 0.0054881 -0.00811414 -0.00923324 -0.00938074 -0.00592925 -0.00775351 -0.00540441 -0.0105942 -0.00359859
internal_weight=0 24.6085 21.8918 8.55103 126.57 26.4264 13.3407 3.9802 3.81367 7.9664 5.23349 3.72826 4.73736 3.28165 18.46 100.143 16.9999 48.2677 20.8934 11.2715 3.27232 27.3743 7.32206 7.31234 9.36055 3.04237 5.56312 3.64197 7.99919 2.65845 6.31818 4.66361 9.62187 3.9816 5.79468 3.66052 9.68757 2.83264
internal_count=7605 1010 944 333 6595 1257 611 163 139 352 238 178 194 139 905 5338 838 2527 1081 586 165 1446 379 348 448 142 261 170 421 135 306 244 495 201 306 194 490 132
is_linear=0
shrinkage=0.0116245


Tree=9
num_leaves=41
num_cat=0
split_feature=0 5 1 5 14 0 14 5 5 0 9 1 2 5 14 14 1 2 14 5 1 1 1 0 2 0 14 14 14 1 1 5 14 1 1 1 14 14 1 1
split_gain=207.44 138.394 52.221 43.3462 26.5735 16.0683 14.4874 11.5982 10.8786 10.658 9.84546 9.39016 11.6705 6.65828 6.16254 11.8327 6.06378 4.05042 3.78531 3.58405 3.03643 2.40412 1.79721 1.26972 0.99574 0.900087 2.00042 0.743732 0.34555 0.328295 0.488682 2.01662 0.61147 0.631657 0.284779 1.28845 0.142303 0.575492 0.0672112 0.543116
threshold=27.500000000000004 5.5000000000000009 1431.5000000000002 8.5000000000000018 -1.0568567298389642 41.500000000000007 -0.096169610606773356 23.500000000000004 13.500000000000002 64.500000000000014 1.0000000180025095e-35 1778.5000000000002 9.5000000000000018 3.5000000000000004 0.42560522743377149 -0.065059733463447053 1901.5000000000002 8.5000000000000018 -0.38149309548586652 1.5000000000000002 1021.5000000000001 1869.5000000000002 719.50000000000011 41.500000000000007 14.500000000000002 19.500000000000004 -0.88875616402142399 1.3055207186357161 -0.043912358002655902 1069.5000000000002 882.50000000000011 3.5000000000000004 1.2814628744007801 1042.5000000000002 493.50000000000006 466.50000000000006 0.45650063893168247 0.74511001690244749 795.50000000000011 814.50000000000011
decision_type=2 2 2 2 2 2 2 2 2 2 2 2 2 2 2 2 2 2 2 2 2 2 2 2 2 2 2 2 2 2 2 2 2 2 2 2 2 2 2 2
left_child=3 9 6 11 -5 -4 -3 8 16 17 -10 25 21 14 15 24 20 23 -19 -20 22 -13 -6 -2 -14 29 -27 -23 -28 30 34 32 33 -32 35 36 -1 -38 -36 -40
right_child=1 2 5 4 7 -7 -8 -9 10 -11 -12 12 13 -15 -16 -17 -18 18 19 -21 -22 27 -24 -25 -26 26 28 -29 -30 -31 31 -33 -34 -35 38 -37 37 -39 39 -41
leaf_value=-0.011745725314656206 -0.011614136842415978 0.0072028218610874746 0.063691245739879818 0.047986713176549047 -0.0029926441130730249 0.10656191061865469 0.050379569738583548 -0.011659119976987806 0.009863506144282299 0.026707925489568993 0.052294330340736349 0.005774343686829336 -0.0057734601132348514 0.029260437510756052 -0.011541320025802248 0.04032890616596814 0.022890305292914158 0.019155620774830389 -0.011467174626198326 0.013240588326613199 -0.011599225235309613 -0.011775806464425496 0.016223326066854393 0.00061727293453690715 0.0074231602975713415 0.0072381025271775973 -0.004796237443520159 -0.0018751416184914983 -0.011616236813145674 -0.011825888259928441 -0.011756928218676082 0.0052657854302614951 -0.001448058644956425 -0.0029604036851223294 -0.011814730842622198 -0.00086209276401587808 -0.0014726565629949119 -0.011540108003132049 -0.0032998129628565892 -0.011699060526378598
leaf_weight=7.7206560242921096 2.9181188400834817 1.7936933692544696 2.7079615239053965 2.2761993035674104 1.3302459493279406 2.9761601816862822 2.5558519549667817 3.763099456205965 1.573687706142664 2.6616133060306302 1.3940395191311836 1.2969856467098022 1.9699300397187469 1.6475815959274767 2.3297455366700888 1.2848893553018554 1.6259240955114362 2.2024084068834782 1.7371861562132838 1.3505971152335403 2.4583557788282633 9.7349770944565517 1.20232836343348 1.8522881027311084 1.1796579062938688 1.1914049163460729 1.6884830128401516 1.1759596969932307 3.0686571709811679 28.206617275252938 8.4084706809371692 1.3370656613260496 1.1264504641294468 1.3292656484991301 23.358462499454621 2.12144462019205 1.1301422361284497 2.4732840023934841 1.3846405185759056 5.0897433012723923
leaf_count=421 143 71 91 106 65 81 98 194 76 110 59 68 99 75 117 62 69 90 78 56 111 512 57 82 59 59 85 60 156 1498 453 69 60 71 1265 115 62 134 74 273
internal_value=0 0.0318667 0.0639968 -0.00622283 0.0118629 0.0871042 0.0329482 0.00549667 0.0122661 0.0063268 0.0304993 -0.00879128 -0.00171171 0.00878351 0.00356116 0.0115485 0.00386768 0.000795776 0.00775412 -0.000609031 -0.00254746 -0.00895173 0.00631053 -0.00692127 -0.000779801 -0.0104174 -0.00594006 -0.0107264 -0.0092944 -0.0107307 -0.0101606 -0.00799714 -0.00965138 -0.0105842 -0.0107574 -0.00920782 -0.0107572 -0.008466 -0.0114338 -0.00995422
internal_weight=0 22.7559 10.0337 125.878 15.6239 5.68412 4.34955 13.3477 9.58458 12.7222 2.96773 110.255 20.6197 8.4118 6.76422 4.43448 6.61685 10.0606 5.29019 3.08778 4.99093 12.2079 2.53257 4.77041 3.14959 89.6348 5.94855 10.9109 4.75714 83.6862 55.4796 12.2013 10.8642 9.73774 43.2784 13.4455 11.3241 3.60343 29.8328 6.47438
internal_count=7484 900 341 6584 737 172 169 631 437 559 135 5847 1052 412 337 220 302 449 224 134 233 640 122 225 158 4795 300 572 241 4495 2997 653 584 524 2344 732 617 196 1612 347
is_linear=0
shrinkage=0.0116245


Tree=10
num_leaves=40
num_cat=0
split_feature=3 4 4 3 8 1 1 3 4 8 9 1 1 1 9 11 1 1 1 11 1 1 1 1 1 1 1 1 1 1 9 11 4 1 11 1 1 11 1
split_gain=241.645 124.469 82.2635 48.2045 39.4145 36.6836 21.9767 15.3429 10.8363 16.8006 10.8089 10.3754 6.32599 6.23132 7.38904 4.61949 3.08678 7.65291 2.37453 1.85005 1.79284 1.68354 1.67205 1.66054 1.35293 2.19601 2.75913 1.34081 1.58751 3.6257 0.913183 1.65719 0.894858 1.52297 2.46494 2.16503 0.463791 0.151289 0.471271
threshold=2.5000000000000004 13.500000000000002 19.500000000000004 1.5000000000000002 1.0000000180025095e-35 1421.5000000000002 1443.5000000000002 3.5000000000000004 9.5000000000000018 1.0000000180025095e-35 1.0000000180025095e-35 1332.5000000000002 1342.5000000000002 1148.5000000000002 1.0000000180025095e-35 4.5000000000000009 1533.0000000000002 1754.5000000000002 2167.5000000000005 6.5000000000000009 2059.5000000000005 1808.5000000000002 1141.5000000000002 2638.5000000000005 978.50000000000011 808.50000000000011 632.50000000000011 410.50000000000006 2126.5000000000005 2566.0000000000005 1.0000000180025095e-35 3.5000000000000004 14.500000000000002 882.50000000000011 8.5000000000000018 1218.5000000000002 999.50000000000011 9.5000000000000018 808.50000000000011
decision_type=2 2 2 2 2 2 2 2 2 2 2 2 2 2 2 2 2 2 2 2 2 2 2 2 2 2 2 2 2 2 2 2 2 2 2 2 2 2 2
left_child=2 36 8 12 -3 13 -6 -8 -1 11 -7 -10 19 14 -5 21 -17 -18 -12 30 -19 -14 24 -22 25 26 -21 -11 32 -30 -4 -32 33 -29 35 -35 -2 -34 -39
right_child=1 4 3 5 6 10 7 -9 9 27 18 -13 15 -15 -16 16 17 20 -20 22 23 -23 -24 -25 -26 -27 -28 28 29 -31 31 -33 37 34 -36 -37 -38 38 -40
leaf_value=-0.011836979562327082 -0.0031630512950997095 0.10585327713422872 -0.011645167031926033 0.00087269004821512891 0.026821321122021721 0.029300039524785288 0.047257395821881008 0.090947268969541542 0.0023173332367711495 0.0041732849939333776 0.051689155587453094 0.045319914903240603 0.0061963958001761904 -0.011412510257627032 0.035922023210502495 0.029132212354476897 -0.0114087245823325 0.028705128985230886 0.076813251542648051 -0.004893379947033448 0.0034995413713937345 -0.011404986582351923 -0.011270388049902625 0.021212430890782261 0.013039152230005938 -0.011361872821553272 0.015842731272266708 -0.011592535955035741 0.0149551666802368 -0.011364211092154972 0.0072198021535624284 -0.011299422565646804 -0.011751417414159243 0.01794274810207435 -0.011412634182024517 -0.0032907336820767212 -0.011647699133459229 -0.0024560495132349989 -0.011513377153418944
leaf_weight=76.514281177893281 1.355852758511898 2.5980549436062566 3.6440683826804179 1.819169605150817 2.9479723721742639 2.2090921308845282 2.6939034517854452 2.1963580120354891 1.6241021305322676 1.4324789624661232 2.1372711844742303 1.3683910593390463 1.2639730218797907 1.5395092163234947 1.4081036169081926 1.3700050711631773 1.6083674654364584 1.3851427882909773 1.5137844905257223 1.715010413900018 1.4958583656698468 1.5871986411511896 1.2576647475361822 1.3619288410991428 1.3645916152745483 1.4741624016314743 1.6401244066655634 2.955372102558619 1.2625840958207839 1.446670291945338 1.1930881179869177 1.2950803656131027 7.2243919949978572 1.1303904652595522 1.678262937813997 1.3807683400809763 2.7297062519937754 1.2538882028311493 2.1763272993266582
leaf_count=4161 65 59 192 89 105 94 95 58 74 74 79 55 63 69 60 66 79 66 56 89 71 77 65 62 66 74 83 158 61 70 61 64 377 59 87 70 119 66 112
internal_value=0 0.0453781 -0.00440962 0.0111434 0.0665597 0.0316262 0.0527598 0.0678303 -0.00966941 -0.00300407 0.0509436 0.0225354 0.00187962 0.00750623 0.0165789 0.00883089 0.0137424 0.00985418 0.0632858 -0.00329259 0.0179656 -0.00363837 0.00060537 0.0122294 0.00311021 0.000166558 0.00535343 -0.00654451 -0.00730411 0.000965326 -0.00798514 -0.0024623 -0.00856172 -0.0053013 -0.000752177 0.00648234 -0.00892706 -0.010702 -0.00831149
internal_weight=0 14.5218 135.731 34.2832 10.4363 10.6269 7.83823 4.89026 101.448 24.9336 5.86015 2.99249 23.6563 4.76678 3.22727 10.0725 7.2213 5.8513 3.65106 13.5838 4.24293 2.85117 7.45155 2.85779 6.19389 4.8293 3.35513 21.9411 20.5087 2.70925 6.13224 2.48817 17.7994 7.14479 4.18942 2.51116 4.08556 10.6546 3.43022
internal_count=7550 501 7049 1625 317 447 258 153 5424 1263 229 129 1178 218 149 484 344 278 135 694 199 140 377 133 312 246 172 1134 1060 131 317 125 929 374 216 129 184 555 178
is_linear=0
shrinkage=0.0116245


Tree=11
num_leaves=31
num_cat=0
split_feature=7 5 0 7 5 8 0 7 11 7 10 7 7 0 5 12 0 7 0 12 12 12 7 7 5 5 7 7 12 12
split_gain=227.628 197.77 75.1257 44.571 67.5981 42.2744 42.029 26.5263 15.0937 7.16818 6.9807 6.50202 29.5212 5.36117 7.83169 10.2455 4.37168 2.05812 1.8206 3.25223 6.53555 1.09739 1.61406 2.84552 1.02415 0.754149 0.480006 0.455416 0.00854746 0.00414504
threshold=4.0182926829268295 6.5000000000000009 41.500000000000007 1.0236363636363639 4.5000000000000009 1.0000000180025095e-35 59.500000000000007 7.7228260869565224 6.5000000000000009 28.131578947368421 1.0000000180025095e-35 0.21111111111111114 0.45643939393939398 17.500000000000004 1.5000000000000002 17.500000000000004 28.500000000000004 1.9130954857499483 1.5000000000000002 12.500000000000002 20.500000000000004 18.500000000000004 2.2567401960784319 3.3100961538461542 1.5000000000000002 1.5000000000000002 0.55618686868686884 7.4939024390243913 17.500000000000004 15.500000000000002
decision_type=2 2 2 2 2 2 2 2 2 2 2 2 2 2 2 2 2 2 2 2 2 2 2 2 2 2 2 2 2 2
left_child=3 6 7 11 17 -6 9 -3 -9 13 -7 -1 -13 18 29 -16 26 -5 19 27 -21 22 -19 24 -24 28 -14 -2 -20 -15
right_child=1 2 -4 4 5 10 -8 8 -10 -11 -12 12 16 14 15 -17 -18 21 25 20 -22 -23 23 -25 -26 -27 -28 -29 -30 -31
leaf_value=-0.01183744402434248 -0.0018872549471523395 0.0203126555401229 0.12397110885307783 0.0040874224497525263 0.072803137428265122 0.001684393648954769 0.065674886702101504 0.040923072551524844 0.089407281508748201 0.026748502878994156 0.027376678922297712 0.047962297107204233 -0.0048899573876993894 -0.0041698631288109378 0.039500096758570885 0.0012190537679423708 0.0091194115048232587 -0.011627447122829499 -0.0032848346082770242 0.023620920662134826 -0.0059175055201785686 -0.011736027538364014 -0.00013646077130692036 -0.011517768837662944 0.012715531895862204 -0.011570315991107635 -0.011784862171763184 -0.011411149861688971 -0.0017301806550141701 -0.0027893577662682408
leaf_weight=79.199566347524524 1.1779205705970652 2.4773201141506416 2.7559396550059319 2.1671972963959041 2.5419020019471645 2.5562120862305147 1.5901282224804152 1.7060671951621773 2.2338739018887281 1.7557724248617876 3.2012236397713423 1.3049219362437696 1.71240718476474 1.5388220865279429 1.982529239729047 1.7613267283886669 1.6253526303917176 3.2883278429508191 1.3805111087858679 1.9209500644356015 2.0202329829335213 6.0645272545516482 1.9826890453696253 2.1916604116559029 1.3832443393766878 2.6097030658274889 10.767361998558044 1.6386780049651859 1.1587700750678775 1.2970201205462215
leaf_count=4323 61 91 63 107 66 118 53 62 76 64 116 58 87 69 78 74 66 171 71 95 103 313 101 112 66 134 568 82 60 60
internal_value=0 0.0284752 0.0735621 -0.00682564 0.00684089 0.0339173 0.00936649 0.0508711 0.0694336 0.00474398 0.0161182 -0.0104936 -0.00356597 0.00256628 0.0109322 0.0218238 -0.00853439 -0.00639757 -0.00209154 0.00187411 0.00863169 -0.00793285 -0.00525783 -0.00139675 0.00528819 -0.00725406 -0.0108695 -0.0075627 -0.00263724 -0.00361633
internal_weight=0 31.0056 9.1732 119.987 25.377 8.29934 21.8324 6.41726 3.93994 20.2422 5.75744 94.6096 15.41 18.4865 6.5797 3.74386 14.1051 17.0776 11.9068 6.75778 3.94118 14.9104 8.84592 5.55759 3.36593 5.14898 12.4798 2.8166 2.53928 2.83584
internal_count=7568 1296 292 6272 1170 300 1004 229 138 951 234 5102 779 887 281 152 721 870 606 341 198 763 450 279 167 265 655 143 131 129
is_linear=0
shrinkage=0.0116245


Tree=12
num_leaves=35
num_cat=0
split_feature=4 0 2 9 1 14 2 0 4 1 14 1 4 0 1 14 4 0 10 2 2 14 14 2 10 14 4 4 2 14 1 14 1 1
split_gain=197.775 113.306 30.6204 17.8383 14.9045 17.2275 12.2738 10.5585 9.18833 13.4071 8.91095 11.8804 7.93108 12.7008 7.82626 7.48905 5.05294 4.66767 4.15155 11.8944 3.42707 3.25066 2.57912 2.46311 4.67515 1.94299 1.18872 0.940859 1.4816 0.907242 0.840027 0.694717 0.377497 0.00742328
threshold=16.500000000000004 35.500000000000007 6.5000000000000009 1.0000000180025095e-35 1363.5000000000002 -1.0568567298389642 9.5000000000000018 62.500000000000007 19.500000000000004 835.50000000000011 1.0457485002213278 1461.5000000000002 13.500000000000002 31.500000000000004 673.50000000000011 0.41436076524628918 19.500000000000004 20.500000000000004 1.0000000180025095e-35 11.500000000000002 10.500000000000002 0.09746718133304591 -0.30404801071573495 5.5000000000000009 1.0000000180025095e-35 1.0244748171096203 15.500000000000002 9.5000000000000018 9.5000000000000018 -0.10604932861396087 2082.5000000000005 0.93086723575268493 1097.5000000000002 950.50000000000011
decision_type=2 2 2 2 2 2 2 2 2 2 2 2 2 2 2 2 2 2 2 2 2 2 2 2 2 2 2 2 2 2 2 2 2 2
left_child=12 2 23 7 6 -6 8 -3 -4 14 11 -7 27 25 -10 22 -13 -8 20 30 -18 -11 -5 24 29 26 -14 -1 31 33 -20 -29 -26 -2
right_child=1 3 4 15 5 10 17 -9 9 21 -12 16 13 -15 -16 -17 18 -19 19 -21 -22 -23 -24 -25 32 -27 -28 28 -30 -31 -32 -33 -34 -35
leaf_value=-0.011834620294486432 -0.0027249743324369523 0.016168686853509293 -0.0058122617425895723 0.059856761953353051 0.053505586449940461 0.041715813708991939 -0.011712224061640762 0.052682953112309229 0.023019667148688253 -0.0047911143941872202 0.038897690221943663 -0.011351888134612881 -0.011679155230139345 0.034099879351347812 0.063362850207188209 0.080484586287761797 0.011873201908234992 0.011884663085230568 0.0086261610079136422 0.038141536130179163 -0.011378283892105621 0.018348352365454856 0.039598014833190288 -0.011731697534412727 0.006412407207901814 0.0080934149792714679 -0.0010157310096394671 -0.011728802220814145 0.0022426508448762854 -0.011611673421449274 -0.0033958239311571523 -0.0017088648692306107 0.015987249304103082 -0.0012932889354867424
leaf_weight=79.551343502476811 1.2931920830160373 2.8484711982309801 1.9850895106792465 2.8481944277882576 2.0771526489406851 1.6803972683846939 4.6688268501311541 1.7417969424277542 1.6208906639367344 1.6810256056487562 2.2351841870695344 1.3980114646255941 4.1320880595594627 1.2120214756578205 1.1801529098302124 2.0754600632935762 1.923244580626488 1.4304985255002973 1.667207954451442 2.2696645464748144 1.4396053627133367 1.4974913261830805 2.195152822881937 5.6424409709870806 1.2472987044602635 1.1372869219630954 2.1493777371942997 5.4735903963446599 1.6361632533371446 3.1787516754120579 1.3856311570852993 1.1548167392611501 1.2134980056434868 1.108144426718354
leaf_count=4393 69 100 103 72 85 66 232 56 79 79 91 66 214 44 56 57 90 59 68 88 66 71 60 289 63 57 112 280 81 170 56 59 60 58
internal_value=0 0.0171272 0.0085111 0.0491461 0.0150479 0.0226747 0.00626482 0.030575 0.0157137 0.0228453 0.0178702 0.01368 -0.010397 0.000234594 0.0410854 0.0607298 0.00876672 -0.00610992 0.0120663 0.0183926 0.00189201 0.00626215 0.0516649 -0.00589061 -0.00172961 -0.00555016 -0.00807891 -0.0114413 -0.00759153 -0.00759812 0.00321323 -0.0100172 0.0114285 -0.0021166
internal_weight=0 55.5325 43.8234 11.7091 30.1401 16.0761 14.064 4.59027 7.96465 5.97956 13.9989 11.7638 96.4467 8.63077 2.80104 7.11881 10.0834 6.09933 8.68535 5.3225 3.36285 3.17852 5.04335 13.6833 8.04088 7.41875 6.28147 87.8159 8.26457 5.58009 3.05284 6.62841 2.4608 2.40134
internal_count=7649 2409 2064 345 1355 676 679 156 388 285 591 500 5240 427 135 189 434 291 368 212 156 150 132 709 420 383 326 4813 420 297 124 339 123 127
is_linear=0
shrinkage=0.0116245


Tree=13
num_leaves=51
num_cat=0
split_feature=5 3 6 3 5 11 10 1 5 1 5 1 1 10 1 5 6 5 11 6 3 11 3 11 1 1 11 5 1 11 1 5 1 11 1 1 1 1 11 11 5 11 1 11 1 1 1 1 1 1
split_gain=160.028 100.537 31.9787 24.4188 16.7768 19.9246 14.1859 11.9259 11.685 6.41317 3.89242 3.4391 4.13237 3.04746 4.43886 3.02218 2.96801 5.4602 2.61128 1.85927 5.03357 2.84322 1.53005 1.17954 1.71692 1.05186 1.55683 1.87425 2.37475 1.19606 0.847254 0.681221 1.42167 0.640047 0.610437 1.61478 1.2119 1.21382 0.605339 0.583578 0.39963 0.269371 0.396274 0.204589 1.07707 0.196058 0.504596 0.128701 0.560824 0.0504213
threshold=8.5000000000000018 1.5000000000000002 1.0000000180025095e-35 2.5000000000000004 1.5000000000000002 5.5000000000000009 1.0000000180025095e-35 1421.5000000000002 10.500000000000002 1474.0000000000002 26.500000000000004 738.50000000000011 1353.5000000000002 1.0000000180025095e-35 1582.5000000000002 4.5000000000000009 1.0000000180025095e-35 1.5000000000000002 7.5000000000000009 1.0000000180025095e-35 1.5000000000000002 6.5000000000000009 3.5000000000000004 10.500000000000002 1948.5000000000002 3279.5000000000005 8.5000000000000018 1.5000000000000002 1849.5000000000002 4.5000000000000009 1929.5000000000002 1.5000000000000002 649.50000000000011 8.5000000000000018 795.50000000000011 1112.5000000000002 1057.5000000000002 888.50000000000011 7.5000000000000009 4.5000000000000009 1.5000000000000002 9.5000000000000018 814.50000000000011 2.5000000000000004 1007.5000000000001 2406.5000000000005 2709.5000000000005 473.50000000000006 417.50000000000006 1250.5000000000002
decision_type=2 2 2 2 2 2 2 2 2 2 2 2 2 2 2 2 2 2 2 2 2 2 2 2 2 2 2 2 2 2 2 2 2 2 2 2 2 2 2 2 2 2 2 2 2 2 2 2 2 2
left_child=3 6 7 9 22 -6 10 -3 -8 19 11 -2 -13 16 -15 25 23 -18 -10 33 31 -22 -5 45 -25 26 27 28 -16 -30 -4 41 -33 43 47 36 37 -36 -19 -34 -39 -21 -43 44 -1 -11 -47 48 -35 -46
right_child=1 2 30 4 5 -7 8 -9 18 13 -12 12 -14 14 15 -17 17 38 -20 20 21 -23 -24 24 -26 -27 -28 -29 29 -31 -32 32 39 34 35 -37 -38 40 -40 -41 -42 42 -44 -45 49 46 -48 -49 -50 -51
leaf_value=-0.011748266237042658 -0.011374748404501671 0.0051411138512242145 0.07191492981676488 -0.011607755844307214 -0.0019966097971066315 0.041847944166237293 0.047977543998126732 0.044075337055541446 0.00022651657164027994 -0.011760478218776148 -0.011644449001241289 0.019717718757649837 -0.0021837955299313129 0.016255939529103723 0.015355411679116708 0.010923872335116127 -0.011560229993723187 0.0052295399843221855 0.020972340622546895 -0.011737447562987941 -0.003753918071620592 0.018726549475903374 0.0027146837182199343 0.0084368583311824306 -0.011207379462279421 0.0049954318944124129 -0.011675805801161541 -0.011483893136666957 -0.011294459256234094 0.003569347719284625 0.056156114227820915 0.0046126647312345155 -0.0017247508749877747 -0.011545700288486558 0.0035069607371494235 -0.011697705229467248 0.0075039927260987186 -0.011528594817695777 0.016072699098766897 -0.011581069378463585 -0.0035866500457762663 -0.0018917594411765621 -0.011260698151864442 -0.011815222502246944 -0.0045335887041937665 -0.0016901169412516504 -0.011465660529483125 -0.011736302221176165 -0.0017292592179934789 -0.0012411124736458785
leaf_weight=8.4855905529111606 1.5530441477894799 2.0215189643204194 4.5045475345104933 2.6271099075674993 2.3420915398746729 3.3966661151498556 1.4990552254021157 2.2231573462486267 1.9130665417760613 8.4963486567139643 3.7736724205315113 2.1653775461018085 2.4091669786721468 2.0273546315729609 1.243713891133664 2.0010539107024661 2.5393292140215626 1.338863814249635 1.3705771435052154 7.4205228779464978 1.4615117982029908 1.4778124112635849 1.5767728220671413 1.1184417027980083 1.1565588917583225 1.3566421978175629 3.6381484717130661 1.862048329785466 1.3273448534309866 1.4902855381369589 2.4909636676311493 1.3925421275198449 1.1582633163779972 2.5586335230618737 1.4988669008016566 4.9883566945791245 1.1750689595937727 2.407501515001059 1.6235412340611217 2.8671002089977264 1.4336703009903429 1.1803746260702612 1.2712542153894899 29.200016787275672 1.6298911217600101 1.1546978969126933 1.9185494277626274 7.1257208380848169 1.1604094095528124 1.1028938032686708
leaf_count=477 81 84 117 121 90 107 62 69 85 457 205 104 115 100 64 82 133 67 57 414 72 69 69 60 63 64 175 89 70 75 55 73 61 142 82 269 62 133 73 156 75 65 70 1631 89 62 101 393 64 59
internal_value=0 0.0255885 0.0516455 -0.006107 0.0113199 0.0241351 0.00550052 0.0258959 0.0217928 -0.00761554 -0.00246154 0.00325762 0.00831646 -0.00339313 0.000549927 -0.00198489 -0.00643096 0.000787489 0.00912852 -0.00939905 -0.00609256 0.00771181 -0.00627687 -0.00928963 -0.00158427 -0.00440224 -0.00576075 -0.00203903 0.00240574 -0.00353109 0.0668813 -0.00876803 -0.00535246 -0.0103519 -0.00870198 -0.00676079 -0.00290133 -0.00525471 0.0113931 -0.00881863 -0.0086751 -0.0105945 -0.00691785 -0.0112486 -0.00971307 -0.0107872 -0.00790558 -0.0107077 -0.00856642 -0.00326546
internal_weight=0 25.9241 11.2402 125.232 9.94264 5.73876 14.684 4.24468 4.7827 115.289 9.90126 6.12759 4.57454 34.2929 14.9466 12.9192 19.3463 5.50173 3.28364 80.996 18.2294 2.93932 4.20388 13.8446 2.275 10.9182 9.56154 5.92339 4.06134 2.81763 6.99551 15.2901 5.41791 62.7666 22.3482 11.5035 6.51511 5.34004 2.96241 4.02536 3.84117 9.87215 2.45163 40.4184 11.2184 11.5696 3.07325 10.8448 3.71904 2.73278
internal_count=7612 1034 325 6578 387 197 709 153 204 6191 505 300 219 1735 719 619 1016 273 142 4456 980 141 190 743 123 537 473 298 209 145 172 839 290 3476 1220 621 352 290 140 217 208 549 135 2256 625 620 163 599 206 148
is_linear=0
shrinkage=0.0116245


Tree=14
num_leaves=29
num_cat=0
split_feature=7 7 4 6 2 7 9 4 2 7 7 12 12 14 6 12 14 7 12 9 14 7 6 9 12 7 14 14
split_gain=207.063 48.53 36.7594 42.407 33.6673 24.701 20.0905 14.3011 11.6862 14.393 10.7638 8.03554 7.2388 12.1833 6.49309 7.77229 3.8549 3.82712 3.81868 5.92196 8.96549 1.14945 3.35559 3.48546 3.29458 0.56948 0.464489 0.0833005
threshold=4.0182926829268295 28.131578947368421 19.500000000000004 1.0000000180025095e-35 8.5000000000000018 16.055555555555561 1.0000000180025095e-35 17.500000000000004 15.500000000000002 8.0036231884057987 5.2453405625211795 14.500000000000002 21.500000000000004 0.051722089020083281 1.0000000180025095e-35 18.500000000000004 0.15715974912540071 11.679487179487181 16.500000000000004 1.0000000180025095e-35 0.24820508234229727 0.90833333333333344 1.0000000180025095e-35 1.0000000180025095e-35 17.500000000000004 9.540793072014587 0.45650063893168247 0.19979715731526945
decision_type=2 2 2 2 2 2 2 2 2 2 2 2 2 2 2 2 2 2 2 2 2 2 2 2 2 2 2 2
left_child=2 4 21 18 5 14 27 16 9 10 -9 -8 13 -11 17 -16 -6 25 19 26 -21 -1 -23 -24 -25 -2 -4 -5
right_child=1 -3 3 6 7 -7 11 8 -10 12 -12 -13 -14 -15 15 -17 -18 -19 -20 20 -22 22 23 24 -26 -27 -28 -29
leaf_value=-0.011830896857410492 -0.011710103738801984 0.068360158118303094 -0.011615729680609243 0.0018460483595752182 -0.0040686279780960061 0.041031445228631683 0.024847410639204186 0.049596281650517701 0.011320793316115267 0.042046255817014544 0.013965155288064487 0.056692484925273928 0.033963372373151134 0.086814985074235573 0.028035892672237526 -0.0051190513498569571 0.02273083872818827 0.010200478151195918 -0.01177548779283832 0.025673650561184227 -0.011363810711091825 -0.011794705288782526 -0.011522390095487743 0.020060793590724602 -0.0041681608348150085 -0.0029248836738555782 -0.003339743565214103 0.0058402564704014472
leaf_weight=77.947939755395055 4.9041331820189971 3.1253282316029063 3.082199318334462 1.6729922536760562 1.5156740527600026 2.3595032785087815 2.1569389067590237 1.832732517272232 1.9612772688269622 1.8829823695123198 3.0869396552443504 2.4779913816601038 1.7179898135364053 1.8222450129687784 1.9862472154200079 1.7550469823181627 1.2958705089986322 1.5492739286273716 7.5686993394047013 2.1197536606341605 1.4314756020903585 11.768272230401637 2.1570129897445431 1.4118746463209393 1.5192550942301748 1.3139825779944656 1.3900468591600654 1.284349091351032
leaf_count=4379 251 102 158 70 68 89 72 67 70 68 110 76 59 61 77 76 52 77 379 98 68 628 110 63 66 64 72 55
internal_value=0 0.0252459 -0.00802006 0.00508916 0.020452 0.00731859 0.0274944 0.0324173 0.0378029 0.0427208 0.0277201 0.0424302 0.0558315 0.0651986 0.000212099 0.0126639 0.00852175 -0.00584171 -0.00589052 -0.000288304 0.0108092 -0.0112272 -0.00840048 -0.000499489 0.00768741 -0.00990391 -0.00912946 0.00367039
internal_weight=0 32.1092 117.989 23.1844 28.9839 13.8682 7.59227 15.1157 12.3042 10.3429 4.91967 4.63493 5.42322 3.70523 11.5087 3.74129 2.81154 7.76739 15.5922 8.02348 3.55123 94.8044 16.8564 5.08814 2.93113 6.21812 4.47225 2.95734
internal_count=7585 1291 6294 1048 1189 634 273 555 435 365 177 148 188 129 545 153 120 392 775 396 166 5246 867 239 129 315 230 125
is_linear=0
shrinkage=0.0116245


Tree=15
num_leaves=29
num_cat=0
split_feature=0 4 5 4 5 10 1 5 1 11 1 1 14 14 1 4 11 5 0 0 14 1 1 0 1 11 0 14
split_gain=216.924 98.6188 100.29 71.592 77.9457 26.059 20.6065 16.953 14.6687 10.6698 8.83753 17.5823 7.4011 6.65421 5.09149 3.19323 4.98353 9.67636 3.17655 2.73287 1.67469 0.840184 1.51835 0.607562 0.704354 0.560631 0.536606 0.202068
threshold=35.500000000000007 12.500000000000002 2.5000000000000004 19.500000000000004 6.5000000000000009 1.0000000180025095e-35 1778.5000000000002 8.5000000000000018 1474.0000000000002 5.5000000000000009 2012.5000000000002 1821.5000000000002 0.1062657790230908 0.15715974912540071 1582.5000000000002 9.5000000000000018 10.500000000000002 2.5000000000000004 19.500000000000004 1.0000000180025095e-35 0.020956514855142046 2126.5000000000005 2566.0000000000005 26.500000000000004 434.50000000000006 9.5000000000000018 4.5000000000000009 0.079469773865195562
decision_type=2 2 2 2 2 2 2 2 2 2 2 2 2 2 2 2 2 2 2 2 2 2 2 2 2 2 2 2
left_child=3 25 9 15 8 12 13 -4 18 -3 11 14 -6 -7 -10 -1 21 26 -5 20 -12 23 -23 24 -17 -2 -18 -9
right_child=1 2 7 4 5 6 -8 27 10 -11 19 -13 -14 -15 -16 16 17 -19 -20 -21 -22 22 -24 -25 -26 -27 -28 -29
leaf_value=-0.011825680859926073 -0.011665086748245639 0.029025851445459574 0.052015157944114605 -0.011796392475596081 0.023652596249020472 0.013478192774551442 0.072260443662820778 0.093066846500858544 0.021626977454603562 -0.0076513901581338169 -0.0033281213311442711 0.04973509509370113 -0.011388814563888218 0.045746176187645413 -0.0064688639472774553 -0.0026247034197394862 -0.011424474997664946 0.029229782251920949 0.0028587941773661799 -0.011576338032861001 0.014796461291344529 0.0055996159614245308 -0.011347478116167388 -0.002389561004456241 -0.011800122484321593 -0.0024439888814037493 -0.0010612855582905611 0.074563428945210217
leaf_weight=73.620439467951655 3.4582574777305135 1.6543430779129273 3.7506001815199834 12.466083239763977 1.9153266921639427 1.7889714296907189 2.9748305901885033 3.2488438710570335 1.3444539252668604 2.7900456469506025 1.3819554802030327 1.6439657546579836 1.3302579447627065 1.757963854819536 2.2255759350955486 1.279092906042943 1.7953600306063884 1.3650039676576851 2.3506632409989825 2.3106659706681967 1.2697332166135309 1.306020708754658 1.4351524375379083 1.2306430414319027 13.727508820593355 1.2477828897535799 1.0824433900415895 2.6150709111243486
leaf_count=4212 170 62 102 654 79 62 86 68 63 98 63 74 55 57 107 70 99 59 109 103 58 59 72 51 733 60 56 50
internal_value=0 0.0366791 0.0520375 -0.00550184 0.00879725 0.0365227 0.0498161 0.0730271 -0.0021056 0.00622618 0.00860742 0.0190772 0.00934959 0.0300151 0.00431254 -0.0106369 -0.00684501 0.00448956 -0.00946899 -0.00249939 0.00549933 -0.00938575 -0.00333133 -0.0103902 -0.011033 -0.00928783 -0.00763778 0.0857375
internal_weight=0 18.7649 14.0589 131.602 34.7604 9.76735 6.52177 9.61451 24.9931 4.44439 10.1764 5.214 3.24558 3.54694 3.57003 96.8417 23.2212 4.24281 14.8167 4.96235 2.65169 18.9784 2.74117 16.2372 15.0066 4.70604 2.8778 5.86391
internal_count=7591 610 380 6981 1570 339 205 220 1231 160 468 244 134 119 170 5411 1199 214 763 224 121 985 131 854 803 230 155 118
is_linear=0
shrinkage=0.0116245


Tree=16
num_leaves=29
num_cat=0
split_feature=7 7 1 8 4 4 1 2 7 14 7 7 14 14 7 14 7 14 7 14 2 7 2 8 7 7 14 7
split_gain=199.916 59.8405 48.5582 27.2719 31.0074 24.0841 36.1372 15.0489 14.9901 12.5624 10.6667 12.1966 9.08854 8.33857 5.56023 4.38528 4.07436 2.51088 2.66782 2.49669 2.13868 1.57611 3.65357 0.922296 5.3252 0.748829 1.41008 0.405985
threshold=2.0025000000000004 28.131578947368421 1409.5000000000002 1.0000000180025095e-35 19.500000000000004 19.500000000000004 1794.5000000000002 9.5000000000000018 7.0041322314049594 0.020956514855142046 2.9604218362282881 11.679487179487181 -0.14589759736441829 -1.0268930393076803 4.4941860465116283 -0.30404801071573495 6.1580041580041591 0.81716084509101761 4.2565789473684221 0.79161382338600805 8.5000000000000018 1.3923076923076925 7.5000000000000009 1.0000000180025095e-35 0.40040281973816721 6.6201923076923084 -0.10604932861396087 0.45643939393939398
decision_type=2 2 2 2 2 2 2 2 2 2 2 2 2 2 2 2 2 2 2 2 2 2 2 2 2 2 2 2
left_child=5 2 10 16 20 23 21 15 14 -8 -2 13 -13 -12 -9 -6 -4 25 -19 -17 -5 27 -23 24 -1 -15 -27 -7
right_child=1 -3 3 4 7 6 9 8 -10 -11 11 12 -14 17 -16 19 -18 18 -20 -21 -22 22 -24 -25 -26 26 -28 -29
leaf_value=-0.011738845350334301 0.033199509804866432 0.064980924005236654 0.06436333126884887 -0.011586260942712027 0.028109011749919408 -0.0050284462016840911 0.012854281506999051 0.037267146104510783 0.06006526291344523 0.052274472790313949 0.016296426336994699 -0.0010997331854889993 0.030037566826417231 -0.01177077389753174 0.01127261401941218 -0.00082444819311904059 0.039370357698001339 -0.011256029086016759 0.0097611591106719457 0.018650744509120441 0.0039620956601614373 0.01393390264088761 -0.011438259121511356 -0.011826223531453945 0.012931307926246732 0.0033303740091110406 -0.011513616824904921 -0.011740099692782835
leaf_weight=6.9739496447145921 1.4930847026407743 3.5642020143568507 2.3722411002963808 2.5171759445220241 2.2714145369827747 1.7441267054527978 2.3044823929667464 2.7770891971886158 3.1664060242474079 2.1147368811070919 2.4309766925871434 2.1536996494978666 2.9940437171608201 7.0049294400960189 1.9550608173012731 2.0915902573615317 2.2016819696873426 1.2396776564419263 2.1142974011600018 1.4748371187597511 2.1774034090340137 1.3146048132330181 1.659202843904495 77.072580330073833 1.3639920093119142 1.5095487572252753 1.8868235759437082 5.5492146778851748
leaf_count=385 60 104 60 122 87 88 90 91 101 77 114 94 119 352 64 84 61 66 98 54 94 67 80 4421 58 71 87 280
internal_value=0 0.0195034 0.0158784 0.0277725 0.0213288 -0.00905983 0.00467373 0.0301078 0.0405415 0.0322101 0.00384609 0.00169563 0.0171615 -0.00327278 0.0268307 0.0156954 0.0530645 -0.0067926 0.00192554 0.00742189 -0.00441983 -0.00730869 -0.000163158 -0.0114231 -0.00763318 -0.00959825 -0.0049784 -0.0101946
internal_weight=0 49.3962 45.832 23.0049 18.431 100.097 14.6864 13.7364 7.89856 4.41922 22.8271 21.334 5.14774 16.1863 4.73215 5.83784 4.57392 13.7553 3.35398 3.56643 4.69458 10.2671 2.97381 85.4105 8.33794 10.4013 3.39637 7.29334
internal_count=7529 1983 1879 818 697 5546 682 481 256 167 1061 1001 213 788 155 225 121 674 164 138 216 515 147 4864 443 510 158 368
is_linear=0
shrinkage=0.0116245


Tree=17
num_leaves=29
num_cat=0
split_feature=7 5 7 3 7 3 3 14 5 3 14 7 14 7 11 5 7 7 14 7 7 11 11 14 14 5 14 14
split_gain=173.705 166.146 35.6418 31.2285 24.1553 21.5334 13.0444 10.3369 24.1625 8.61908 8.05582 7.87748 5.53837 4.87929 4.66796 3.30305 19.4296 3.05522 1.87954 1.24719 1.42854 4.50075 1.46762 0.702193 0.525588 0.513287 0.747716 1.46941
threshold=1.1055555555555558 8.5000000000000018 39.352189781021906 2.5000000000000004 12.066725455614346 1.5000000000000002 4.5000000000000009 0.31571989877883394 2.5000000000000004 3.5000000000000004 -1.0420749145114649 17.708333333333339 -0.096169610606773356 4.7527777777777791 7.5000000000000009 11.500000000000002 0.33653846153846156 1.9942528735632188 -0.2017126376604958 4.1997229916897512 6.6880281690140855 5.5000000000000009 10.500000000000002 0.80354529967979704 0.32850364285672845 1.5000000000000002 0.060555881368067867 0.79161382338600805
decision_type=2 2 2 2 2 2 2 2 2 2 2 2 2 2 2 2 2 2 2 2 2 2 2 2 2 2 2 2
left_child=6 2 5 4 12 11 15 9 13 10 -7 17 -3 -9 -14 -1 -17 -2 -12 25 21 -21 23 -22 -23 -19 -27 -28
right_child=1 3 -4 -5 -6 7 -8 8 -10 -11 18 -13 14 -15 -16 16 -18 19 -20 20 22 24 -24 -25 -26 26 27 -29
leaf_value=-0.011682589859549163 0.0090820722802754956 0.035640628262272517 0.05561361727177886 0.070547613459005384 0.067775331665966568 0.022559927139769835 0.028245571666705542 -0.011388797993543056 0.05201994109875082 0.029168213866155101 -0.011733603018490997 0.0152173450495226 0.0034004077430578794 0.01753255582930421 0.028947239695237593 -0.011757228849175561 0.033139967238335011 -0.011737670747212695 0.0013360209217834328 0.015692889116881423 -0.011733800079406541 -0.011465557489661368 0.0023245687183813279 -0.0015760309543519002 -0.0013666125089257864 -0.011503577820606098 0.0066829182970479665 -0.011211927161025481
leaf_weight=81.230257973074913 1.6368551906198323 3.1164325438439837 1.6630780920386303 5.5389151200652114 2.2716257330030203 1.6403217632323492 1.1018958576023568 1.4878533668816083 2.4848929308354855 1.6416788436472414 3.3465810567140566 2.5295184124261132 2.2481367066502567 1.5373344551771877 1.6565936263650654 7.7623440697789174 1.497258812189102 7.2485085017979163 2.6131113413721327 1.6489574778825034 5.2368444353342039 1.8849021065980198 1.6255495976656673 1.1397053543478248 1.1137071214616296 2.0744497142732143 1.229320550337434 1.1261341851204631
leaf_count=4697 87 99 48 94 63 65 34 69 76 46 135 100 80 59 61 416 60 401 102 82 257 97 79 58 55 106 63 58
internal_value=0 0.0150258 0.00386072 0.048666 0.0352178 0.00178873 -0.0104409 0.013157 0.0256655 0.00556999 0.000265141 -0.00411352 0.0241506 0.00336899 0.01454 -0.0109323 -0.00431414 -0.00603058 -0.00605121 -0.00706924 -0.00450299 0.000622112 -0.00746034 -0.00995303 -0.00782502 -0.00980795 -0.00652436 -0.001945
internal_weight=0 59.741 44.9093 14.8317 9.29279 43.2462 91.5918 14.7518 5.51008 9.24169 7.60001 28.4945 7.02116 3.02519 3.90473 90.4899 9.2596 25.9649 5.95969 24.3281 12.6497 4.64757 8.0021 6.37655 2.99861 11.6784 4.4299 2.35545
internal_count=7647 2440 2043 397 303 1995 5207 552 204 348 302 1443 240 128 141 5173 476 1343 237 1256 628 234 394 315 152 628 227 121
is_linear=0
shrinkage=0.0116245


Tree=18
num_leaves=29
num_cat=0
split_feature=4 5 8 7 7 3 7 7 0 3 7 7 7 7 5 6 7 3 0 0 0 5 5 5 0 7 7 7
split_gain=176.865 154.626 35.0276 34.9947 32.253 27.9524 27.6673 21.4426 14.4989 11.1561 10.2974 23.4704 5.18957 4.86809 9.84998 4.74714 5.82792 5.71172 2.57672 2.42687 1.76617 0.532216 0.531253 1.91408 0.499849 0.50997 1.51796 0.443036
threshold=18.500000000000004 8.5000000000000018 1.0000000180025095e-35 7.5357142857142865 5.2453405625211795 2.5000000000000004 25.107142857142861 28.131578947368421 41.500000000000007 3.5000000000000004 3.1981735159817357 1.7579787234042554 6.6880281690140855 3.0017301038062287 8.5000000000000018 1.0000000180025095e-35 2.9198717948717952 1.5000000000000002 30.500000000000004 34.500000000000007 23.500000000000004 3.5000000000000004 14.500000000000002 21.500000000000004 1.0000000180025095e-35 2.3054349348648278 1.8844444444444446 0.60555555555555574
decision_type=2 2 2 2 2 2 2 2 2 2 2 2 2 2 2 2 2 2 2 2 2 2 2 2 2 2 2 2
left_child=7 4 -3 10 15 6 8 9 12 13 11 -4 -6 22 19 18 17 -17 24 21 -14 -15 -1 -24 25 26 27 -2
right_child=1 2 3 -5 5 -7 -8 -9 -10 -11 -12 -13 20 14 -16 16 -18 -19 -20 -21 -22 -23 23 -25 -26 -27 -28 -29
leaf_value=-0.011821797693232664 -0.0030923177151792672 0.079035518137599736 0.0054108786991227927 0.06896164793763028 0.013681975074209731 0.053591058089250104 0.049166692308911734 0.041869778958543935 0.032281413441818015 0.012924072985016228 0.0047615934447130881 0.061654078750438678 -0.011726353614672679 -0.011732251145213493 0.022383169078951205 0.00038976511492955636 -0.0078074511518504974 0.02982473000037144 0.0043392563419525172 0.0071757112777199802 0.0020316802724274128 -0.0037376060713767483 0.0030056404676249236 -0.01168369923033471 -0.011740816960259363 -0.01154964899226958 0.0056281353204647791 -0.011538756147990768
leaf_weight=80.087888274341822 1.350322505459195 4.0014512166380873 1.9834845773875698 3.2360765859484673 1.7831056118011455 2.4205460082739583 2.0353505071252576 1.0254686996340741 1.7874809317290772 2.7396645359694949 2.726426113396883 1.9905225336551664 5.0032526459544897 6.4831132348626834 1.6457852981984604 1.8930730335414403 2.8922942820936441 1.61949454434216 2.120940748602151 1.1907888334244487 1.6548799686133859 1.4546908922493456 1.5483970474451769 4.9086504466831684 6.3676958233118057 2.3982529621571302 1.3082449845969675 2.4576315861195326
leaf_count=4701 73 65 78 80 85 62 61 29 55 88 82 53 243 349 57 94 110 57 83 47 67 68 77 277 331 123 69 134
internal_value=0 0.0171011 0.0500128 0.0378806 0.00466723 0.0180171 0.0107465 -0.00943205 0.0028351 -0.0099851 0.0223429 0.0341297 -0.00360255 -0.0106383 -0.00324575 -0.00410863 0.00431738 0.014261 -0.00748482 -0.00799396 -0.00832042 -0.0103101 -0.0115555 -0.00816644 -0.00930332 -0.0071535 -0.00497184 -0.00864739
internal_weight=0 51.0305 13.938 9.93651 37.0926 14.6846 12.2641 101.084 10.2287 100.059 6.70043 3.97401 8.44124 97.3193 10.7744 22.408 6.40486 3.51257 16.0031 9.12859 6.65813 7.9378 86.5449 6.45705 13.8821 7.51445 5.1162 3.80795
internal_count=7698 2005 358 293 1647 573 511 5693 450 5664 213 131 395 5576 521 1074 261 151 813 464 310 417 5055 354 730 399 276 207
is_linear=0
shrinkage=0.0116245


Tree=19
num_leaves=31
num_cat=0
split_feature=7 0 3 4 0 7 3 3 7 12 1 0 12 12 1 7 12 11 7 0 7 12 3 12 1 1 4 1 7 1
split_gain=179.232 97.2048 51.2868 16.2359 22.3348 15.386 15.0201 14.5262 14.1714 15.8584 13.1338 10.0384 8.40508 14.265 7.89887 7.31689 5.99203 4.84625 4.7706 3.93944 3.56607 3.46882 3.20828 1.5267 1.08733 1.69946 0.747744 1.6458 0.739609 0.580443
threshold=2.0025000000000004 35.500000000000007 1.5000000000000002 19.500000000000004 46.500000000000007 2.9939024390243909 3.5000000000000004 3.5000000000000004 20.739126516410149 19.500000000000004 1421.5000000000002 46.500000000000007 12.500000000000002 18.500000000000004 2771.0000000000005 8.0036231884057987 24.500000000000004 6.5000000000000009 2.6700247437256985 14.500000000000002 5.5916666666666677 12.500000000000002 1.5000000000000002 12.500000000000002 1778.5000000000002 2214.5000000000005 16.500000000000004 1421.5000000000002 0.25833333333333336 242.50000000000003
decision_type=2 2 2 2 2 2 2 2 2 2 2 2 2 2 2 2 2 2 2 2 2 2 2 2 2 2 2 2 2 2
left_child=3 2 15 26 14 -4 10 8 9 11 20 -3 -12 -14 22 18 17 -17 -2 21 -7 -19 28 -24 -20 -26 29 -28 -5 -1
right_child=1 7 5 4 -6 6 -8 -9 -10 -11 12 -13 13 -15 -16 16 -18 19 24 -21 -22 -23 23 -25 25 -27 27 -29 -30 -31
leaf_value=-0.0046023945322039694 0.011929479614270247 0.060874738787221126 0.058479081628631489 -0.0015917535100214799 0.040352603235774734 -0.011506795594447146 0.049210172968272403 0.067308695673649485 0.063191583499624934 0.0078087897645697894 0.0055559950437657881 0.026972454829335392 0.057748335447964219 0.015533115522053182 0.023561986952718283 -0.002114098669972675 -0.011527263529004395 -0.0032415869480930861 -0.011773801625776589 0.033335796507659145 0.0087030932174830648 0.022829690971396518 0.011397060601579268 -0.0031439371787826092 0.0064199194709679882 -0.011395028870103796 -0.011594878565316083 0.0030819659058396744 -0.01174910654375054 -0.011820237106664867
leaf_weight=1.6498533524572838 1.4316912181675459 2.17375331930816 1.5916327722370613 1.1437514256685952 1.712301356717943 1.9480119235813598 2.0281579457223406 2.9911192171275607 2.2538878750056028 2.8907507304102182 1.9635846577584741 2.9231306500732899 1.9420711062848566 2.4938262831419706 1.2618469633162011 2.3867873474955541 2.0276980642229319 1.3685626965016129 10.306361285969613 1.4906505383551119 2.7822816707193851 1.2952569331973789 1.4602327905595291 2.6492768879979849 1.2469363491982215 1.5583175309002397 2.9658617172390214 1.5301809962838886 7.2008135225623846 76.063908481970429
leaf_count=98 72 61 48 63 45 92 50 39 47 86 67 79 55 87 45 108 93 66 563 57 106 60 59 108 60 76 166 72 385 4497
internal_value=0 0.017508 0.00799624 -0.00934868 0.00158784 0.0248802 0.0205441 0.0445485 0.0375125 0.0298077 0.0150609 0.0420251 0.0258301 0.0345914 -0.00342176 -0.0028188 0.00567469 0.011069 -0.00782621 0.0185574 0.000336484 0.00968098 -0.00626564 0.00212147 -0.0100324 -0.00351076 -0.0114008 -0.00662747 -0.0103803 -0.011671
internal_weight=0 51.0945 37.8618 97.638 15.4282 14.7496 13.1579 13.2326 10.2415 7.98763 11.1298 5.09688 6.39948 4.4359 13.7159 23.1123 8.56896 6.54126 14.5433 4.15447 4.73029 2.66382 12.4541 4.10951 13.1116 2.80525 82.2098 4.49604 8.34456 77.7138
internal_count=7510 1972 1660 5538 705 505 457 312 273 226 407 140 209 142 660 1155 384 291 771 183 198 126 615 167 699 136 4833 238 448 4595
is_linear=0
shrinkage=0.0116245


Tree=20
num_leaves=50
num_cat=0
split_feature=5 3 8 3 1 3 6 8 14 5 9 1 1 1 14 1 1 1 14 14 9 14 14 6 14 14 1 14 1 1 14 1 14 1 14 14 1 1 14 1 14 1 14 1 1 14 3 6 1
split_gain=157.536 94.6194 26.9277 17.1668 15.4027 15.0825 13.6399 13.0127 11.8673 10.2355 5.89013 6.36456 5.62178 9.31187 4.21303 3.91307 3.79828 4.02741 3.05929 2.37643 1.90465 2.30824 4.61145 1.89748 3.87799 3.52077 1.62941 0.947255 2.631 2.34872 0.634461 0.646024 0.550605 0.756123 0.522694 1.43602 2.509 3.59824 0.568786 0.485195 0.89409 1.49134 0.498889 0.588806 2.53695 0.404258 0.332744 0.0859427 0.374726
threshold=6.5000000000000009 1.5000000000000002 1.0000000180025095e-35 1.5000000000000002 1662.5000000000002 2.5000000000000004 1.0000000180025095e-35 1.0000000180025095e-35 -0.80942161456125838 3.5000000000000004 1.0000000180025095e-35 1591.5000000000002 632.50000000000011 808.50000000000011 0.91564071663107482 2102.5000000000005 1754.5000000000002 1808.5000000000002 -0.9155662177639815 0.37372285095195784 1.0000000180025095e-35 0.41436076524628918 -0.39312707618210163 1.0000000180025095e-35 -0.16825599759697549 0.44577140343447491 3279.5000000000005 -1.074661567460552 1322.5000000000002 454.50000000000006 1.1525463385921533 1901.5000000000002 0.010677643840664433 1849.5000000000002 -0.053384307115113543 0.2379204799850419 801.50000000000011 1069.5000000000002 0.13566875355588667 473.50000000000006 0.81716084509101761 369.50000000000006 1.2814628744007801 986.50000000000011 835.50000000000011 -0.83244519140781514 2.5000000000000004 1.0000000180025095e-35 1162.5000000000002
decision_type=2 2 2 2 2 2 2 2 2 2 2 2 2 2 2 2 2 2 2 2 2 2 2 2 2 2 2 2 2 2 2 2 2 2 2 2 2 2 2 2 2 2 2 2 2 2 2 2 2
left_child=3 7 -3 16 5 -4 9 -2 -8 20 11 -10 -9 -14 18 -6 27 -18 -15 -12 46 22 45 26 -25 -26 30 28 29 -1 31 -19 -20 -34 47 36 -36 -38 -39 40 41 -37 -41 44 -44 -22 -5 -29 -49
right_child=1 2 4 6 15 -7 8 12 10 -11 19 -13 13 14 -16 -17 17 23 32 -21 21 -23 -24 24 25 -27 -28 34 -30 -31 -32 -33 33 -35 35 39 37 38 -40 42 -42 -43 43 -45 -46 -47 -48 48 -50
leaf_value=0.0047169171543402196 0.030009720684439401 0.063384116414336431 -0.00031098354310271322 -0.011735699532437048 0.056703031199878205 0.037104736077787664 0.038430781488696705 -0.011661246656689434 0.00255917825603163 0.020081638228094244 -0.011569998431356041 0.036263115198553228 0.025785361178259997 0.0097398799506232224 0.015678886012142308 0.035417358676087536 0.017194302593840478 -0.0025070507489684396 -0.011634586071631469 0.0064298416936610474 -0.011444239598790842 -0.011554216751901382 0.014886397127452251 -0.011437298729133641 0.024297820431074105 -0.0026799427421952938 0.0038646889186439073 -0.011787586817109078 0.006094070756681621 -0.011719909258756083 -0.00062591901983657017 -0.01173729170061987 1.2659309394636945e-05 -0.011319218008477365 -0.011619484271186599 -0.011101175039028003 0.013793116031205045 -0.011380739594076761 -0.00034470729058285588 -0.011789328941034773 -0.011492830352815965 0.0076444368221691029 -0.011446230882488426 -0.011550084197437978 0.010665842701904909 -0.0024328241021911688 -0.006015728806869805 -0.011636163488035879 -0.0047891660945305163
leaf_weight=1.384609978646038 2.1641502510756263 5.4449910502880821 2.9879600945860147 6.4238494429737347 2.4734960682690144 2.7710982784628868 2.0234350450336933 4.0616538263857374 1.594252573326232 2.134413043037056 1.9733207821846011 1.3946650382131336 2.1143038012087336 1.5792360790073861 1.6465058885514734 3.3610769025981426 1.1609124541282643 1.2558300420641879 3.0152662862092248 1.8684154395014045 1.5270140208303931 2.3648282214999199 2.1322150006890288 1.7127592097967861 1.2406908534467214 1.2844073511660097 1.4623237010091532 18.256971724331382 1.9193065892904986 6.6782320477068424 1.0396011639386413 6.7243419177830219 1.9521892946213486 1.2768628690391777 3.6862741280347091 1.0063393805176049 1.7783779408782718 1.6286761723458769 1.0121925063431261 19.041855061426762 2.2762697357684374 1.1676783598959444 1.9948748014867299 2.7152312751859426 1.0014192108064888 1.2412618268281219 2.042486347258091 3.8285594191402188 1.687277980148792
leaf_count=79 77 89 117 349 61 64 76 224 75 89 80 51 106 71 75 82 61 63 150 71 69 120 101 88 61 67 79 1087 102 390 58 370 96 59 220 60 103 93 57 1131 137 69 120 160 56 58 96 222 91
internal_value=0 0.0225085 0.0420361 -0.00572048 0.0317077 0.017909 0.00242397 0.00374048 0.014166 -0.00342589 0.00667883 0.0187299 -3.95278e-06 0.00412621 -0.000854557 0.0449749 -0.0082234 -0.00306745 -0.00443623 -0.00285512 -0.00668593 -0.00228805 0.00227772 -0.0047351 0.0018093 0.0108569 -0.00737572 -0.00937169 -0.00598125 -0.00888187 -0.00921291 -0.0103172 -0.0080859 -0.00460537 -0.0099187 -0.00901158 -0.00462807 0.00128899 -0.00726247 -0.010215 -0.00650826 -0.00110426 -0.0108624 -0.00767249 -0.0039853 -0.00755448 -0.010413 -0.0113134 -0.00962314
internal_weight=0 34.8488 17.0386 113.665 11.5936 5.75906 26.7202 17.8102 8.85409 17.8661 6.83065 2.98892 15.646 11.5844 9.47006 5.83457 86.945 15.8809 7.82355 3.84174 15.7317 7.26532 4.90049 14.72 4.23786 2.5251 10.4821 71.0641 9.98215 8.06284 9.01977 7.98017 6.24432 3.22905 61.082 37.3092 8.10552 4.41925 2.64087 29.2037 4.45029 2.17402 24.7534 5.71153 2.99629 2.76828 8.46634 23.7728 5.51584
internal_count=7530 1271 413 6259 324 181 1235 858 353 882 277 126 781 557 451 143 5024 847 376 151 793 348 228 786 216 128 570 4177 571 469 491 433 305 155 3606 2206 473 253 150 1733 266 129 1467 336 176 127 445 1400 313
is_linear=0
shrinkage=0.0116245


Tree=21
num_leaves=28
num_cat=0
split_feature=5 7 7 6 7 7 5 2 2 6 7 5 2 1 1 1 7 1 1 7 1 7 5 1 7 7 1
split_gain=168.085 141.437 57.5405 46.3891 28.0142 21.6663 12.1653 12.5646 14.4126 11.0543 14.8811 14.0179 17.0966 10.5181 10.0193 3.68172 7.50119 2.54293 1.78026 2.98645 0.814387 1.39393 0.621009 0.36354 0.283862 0.131478 0.691936
threshold=6.5000000000000009 0.21111111111111114 30.037735849056606 1.0000000180025095e-35 5.5916666666666677 2.2011560693641621 13.500000000000002 12.500000000000002 8.5000000000000018 1.0000000180025095e-35 14.30729166666667 4.5000000000000009 12.500000000000002 1662.5000000000002 1713.5000000000002 2887.5000000000005 0.17424242424242423 906.50000000000011 1322.5000000000002 8.8923076923076945 1808.5000000000002 4.4941860465116283 5.5000000000000009 846.50000000000011 5.2899159663865554 1.8844444444444446 1636.5000000000002
decision_type=2 2 2 2 2 2 2 2 2 2 2 2 2 2 2 2 2 2 2 2 2 2 2 2 2 2 2
left_child=2 -2 5 4 14 15 7 8 -5 10 18 12 17 -6 23 22 -17 -11 -7 20 21 -20 25 -3 -19 -1 -27
right_child=1 3 -4 6 13 9 -8 -9 -10 11 -12 -13 -14 -15 -16 16 -18 24 19 -21 -22 -23 -24 -25 -26 26 -28
leaf_value=-0.011814106079558025 -0.01178441588654482 -0.0040064757884597469 0.045099387053627898 0.05415198133890229 0.024285500883029866 -0.011773916579819211 0.072018609614076801 0.066234633732805664 0.022239055832169102 0.0063329745174868328 0.019639776622248292 0.039615841818066266 0.033253219585489914 0.060759472977698195 0.021468438340539821 -0.011531469591648793 0.021773112925626486 -0.0055898298891969246 0.0051659447149309898 0.009681740833958374 -0.011689250382368324 -0.011326737963555671 -0.0038614892977543057 -0.011607380599861397 -0.011692041865961103 -0.01164810463211049 -0.0011444149985363812
leaf_weight=69.274899695068598 11.219203874468802 1.5038975384086373 2.790607798844575 3.6155751105397922 2.5151490848511457 9.8474210780113989 3.2459765188395986 2.8936977963894606 4.3168611824512482 1.8928773049265144 2.9012307804077855 1.7476306594908244 2.0048078410327435 2.0118468161672354 2.3790277130901814 2.5555002223700281 1.3367947395890949 1.9032398425042627 1.3451734744012349 1.5846133306622503 3.3946776669472456 1.3019722662866113 1.4891227260231961 2.2456474080681801 2.904571820050478 4.0339961219578973 1.0876995492726562
leaf_count=4190 613 68 72 82 81 535 67 52 93 97 117 56 69 47 74 151 58 90 70 70 153 61 85 95 120 230 54
internal_value=0 0.0224009 -0.00642395 0.0379012 0.0194287 -0.00775003 0.0517327 0.0452505 0.0371119 0.000526241 -0.00445771 0.0102079 0.00405036 0.0411356 0.00312679 -0.010946 7.93203e-05 -0.00492627 -0.00851757 -0.0042479 -0.00796648 -0.00302408 -0.0115111 -0.00868088 -0.00938489 -0.0116606 -0.0094604
internal_weight=0 35.9469 113.397 24.7277 10.6556 110.606 14.0721 10.8261 7.93244 30.8282 20.3751 10.4531 8.7055 4.527 6.12857 79.778 3.89229 6.70069 17.4739 7.62644 6.04182 2.64715 75.8857 3.74954 4.80781 74.3966 5.1217
internal_count=7550 1272 6278 659 365 6206 294 227 175 1438 1006 432 376 128 237 4768 209 307 889 354 284 131 4559 163 210 4474 284
is_linear=0
shrinkage=0.0116245


Tree=22
num_leaves=28
num_cat=0
split_feature=7 0 3 3 3 7 7 2 8 7 7 8 0 2 0 0 3 2 2 7 9 7 3 7 11 0 0
split_gain=163.658 79.5437 34.3159 27.3738 15.0503 14.7308 10.342 10.0387 7.25662 6.89347 6.09698 17.7173 9.36366 4.98629 4.16905 3.56593 3.3389 4.27161 2.35324 2.15399 1.64163 1.44868 0.754171 1.62906 0.3818 0.371631 0.33757
threshold=2.0025000000000004 41.500000000000007 2.5000000000000004 3.5000000000000004 1.5000000000000002 39.352189781021906 2.9198717948717952 9.5000000000000018 1.0000000180025095e-35 9.2678571428571441 0.17424242424242423 1.0000000180025095e-35 17.500000000000004 7.5000000000000009 1.0000000180025095e-35 11.500000000000002 1.5000000000000002 9.5000000000000018 13.500000000000002 11.679487179487181 1.0000000180025095e-35 8.7993742368742378 1.5000000000000002 1.3923076923076925 3.5000000000000004 8.5000000000000018 1.0000000180025095e-35
decision_type=2 2 2 2 2 2 2 2 2 2 2 2 2 2 2 2 2 2 2 2 2 2 2 2 2 2 2
left_child=3 2 5 10 -3 6 -2 -4 15 -6 -1 12 -12 19 21 -8 17 -16 22 24 -19 -15 -13 -24 -10 -21 -20
right_child=1 4 7 -5 9 -7 8 -9 13 -11 11 18 -14 14 16 -17 -18 20 26 25 -22 -23 23 -25 -26 -27 -28
leaf_value=-0.011811254004078923 0.024221653605487423 0.022922915917062168 0.013950768265250223 0.024791136429215897 0.040353620325557005 0.037544967480025435 0.026545141686355585 0.041310319558839133 -0.0055950292434587736 0.063708605497063447 0.0015201601530572279 -0.011778665416929941 0.040988228184288336 -0.011598021082400725 0.014519076129986644 0.004230701136560126 0.01629395580212243 -0.011594625419320376 0.0051922773477556328 -0.0028437793475698885 0.003900191426561366 0.0019279881816012666 -0.011582068070856108 0.0037426770205194909 -0.011739854799939213 0.0057421929770361179 -0.0029107587593570645
leaf_weight=69.922279088757932 2.5244294386357096 3.6059319674968711 3.0709046702831975 3.0811209212988606 4.110971922054885 1.5881369374692429 1.7654991466552084 4.7194101791828871 1.9186490289866904 3.9000896755605936 1.7247724998742371 13.778915063478058 1.478226678445935 2.8363029984757295 2.1620967434719187 2.1159193646162748 3.2471864968538284 2.3436737395823002 1.3420476671308272 1.3073323108255857 1.4556541126221421 1.6683553066104648 2.407932104542851 1.4674269594252107 7.1709740795195103 1.292938796803355 1.3109014276415107
leaf_count=4280 107 106 77 91 70 42 72 110 106 61 84 800 42 146 97 66 116 104 68 65 68 73 115 65 398 54 58
internal_value=0 0.0164819 0.00887197 -0.00895939 0.0432599 0.00372194 0.00195894 0.0307333 -1.03661e-05 0.0521517 -0.0100891 -0.00494849 0.0201953 -0.00228332 0.00246847 0.014655 0.00693626 0.00171643 -0.00896697 -0.00784013 -0.00569282 -0.00663303 -0.0104958 -0.00581379 -0.0104925 0.00146193 0.00121488
internal_weight=0 52.8045 41.1875 96.5136 11.617 33.3971 31.809 7.79031 29.2846 8.01106 93.4325 23.5102 3.203 25.4032 13.7133 3.88142 9.20861 5.96142 20.3072 11.6899 3.79933 4.50466 17.6543 3.87536 9.08962 2.60027 2.65295
internal_count=7541 1938 1701 5603 237 1514 1472 187 1365 131 5512 1232 126 1227 604 138 385 269 1106 623 172 219 980 180 504 119 126
is_linear=0
shrinkage=0.0116245


Tree=23
num_leaves=33
num_cat=0
split_feature=4 6 0 1 0 1 1 1 1 4 0 1 1 10 0 9 8 0 1 1 1 1 10 0 1 1 1 0 0 1 4 1
split_gain=195.852 64.4989 18.4767 14.16 27.6231 15.8577 13.4623 15.6595 12.456 10.4241 17.0513 7.11792 6.88948 9.06926 6.37808 5.52807 3.70361 1.96923 1.62631 2.73399 2.22317 2.63969 1.69704 1.48234 1.8106 6.03496 1.34232 0.621841 0.595558 0.549067 0.261006 0.601312
threshold=18.500000000000004 1.0000000180025095e-35 19.500000000000004 1778.5000000000002 23.500000000000004 1218.5000000000002 2012.5000000000002 2483.5000000000005 2376.5000000000005 11.500000000000002 39.500000000000007 1821.5000000000002 1725.5000000000002 1.0000000180025095e-35 1.5000000000000002 1.0000000180025095e-35 1.0000000180025095e-35 32.500000000000007 738.50000000000011 1431.5000000000002 1296.5000000000002 1112.5000000000002 1.0000000180025095e-35 1.0000000180025095e-35 882.50000000000011 1178.5000000000002 970.50000000000011 13.500000000000002 9.5000000000000018 2042.5000000000002 9.5000000000000018 1280.5000000000002
decision_type=2 2 2 2 2 2 2 2 2 2 2 2 2 2 2 2 2 2 2 2 2 2 2 2 2 2 2 2 2 2 2 2
left_child=9 2 12 4 14 -6 -5 -8 11 30 16 15 18 -14 -3 17 -11 -4 28 20 21 22 26 -18 -25 -26 -20 -16 -2 -27 -1 -32
right_child=1 3 8 6 5 -7 7 -9 -10 10 -12 -13 13 -15 27 -17 23 -19 19 -21 -22 -23 -24 24 25 29 -28 -29 -30 -31 31 -33
leaf_value=-0.011811832420840622 -0.011607820498940493 0.021491934110659878 0.017576853822508311 0.065659859374993482 0.062545428258580352 0.025562354344070993 0.014291449838343745 0.049934751015529889 0.045602410925718179 0.0072677363687886163 0.026849762345069396 -0.0060326580094041396 -0.0062765747443512465 0.024458835097072112 0.0029446408759219427 0.028711964385205388 -0.011740111983761995 0.00010107821430299158 -0.0061559746268915602 -0.011557903652380064 0.016773936715257988 -0.011474047177319287 0.01305340305575747 -0.011601277288793265 0.019175661023732037 -0.011584666796002006 0.0094842001436394301 -0.0065510475952457398 -0.0018682954155055372 -0.0017382402525625697 -0.011494626410204097 -0.00074427910202530144
leaf_weight=70.451506447046995 3.2885632682591739 2.390813374891879 1.5349504146724924 2.7724725566804391 2.7345828153192997 3.9370312578976154 3.016876857727766 3.8615604359656572 1.9576742555946101 2.3780243564397141 2.3357093241065732 1.9486309923231599 2.1409241892397395 3.1412855945527554 1.5484332200139763 3.6521700900048018 7.7914119130000472 1.9133715163916347 2.1087157921865569 2.3739539794623843 1.1779245967045424 1.9167570462450383 1.8282519588246939 2.9936359561979771 1.4547571018338201 2.3710573622956876 1.0595251480117438 2.165794525295496 1.1739473240450022 1.1540573630481956 2.1293142661452289 1.0484709981828926
leaf_count=4332 187 108 67 66 61 86 76 88 54 87 67 59 100 115 69 117 449 68 114 118 58 101 87 165 70 117 57 72 60 53 120 54
internal_value=0 0.0181993 0.00736825 0.0332091 0.0249504 0.0411856 0.0438986 0.0345862 0.0194377 -0.00961722 -0.00227239 0.0134879 0.000752997 0.0120778 0.00695759 0.0188512 -0.00610535 0.00806421 -0.0032899 -0.000766422 0.00246775 -0.000105505 0.0043485 -0.00814449 -0.0045634 -0.000236118 -0.000838706 -0.00261009 -0.00911028 -0.00845239 -0.0116562 -0.00803506
internal_weight=0 53.6442 31.2166 22.4276 12.7767 6.67161 9.65091 6.87844 11.0068 94.1079 20.4787 9.04912 20.2098 5.28221 6.10504 7.10049 18.1429 3.44832 14.9276 10.4651 8.09117 6.91325 4.99649 15.7649 7.97351 4.97987 3.16824 3.71423 4.46251 3.52511 73.6293 3.17779
internal_count=7502 1988 1362 626 396 147 230 164 365 5514 1008 311 997 215 249 252 941 135 782 535 417 359 258 854 405 240 171 141 247 170 4506 174
is_linear=0
shrinkage=0.0116245


Tree=24
num_leaves=42
num_cat=0
split_feature=5 0 1 0 5 1 5 14 2 0 14 14 11 2 1 1 1 5 1 2 0 11 0 1 1 14 11 1 1 14 1 14 14 1 11 14 1 1 1 1 14
split_gain=153.354 64.8097 35.5999 18.4679 13.2944 12.2821 13.0703 9.38116 8.16186 7.11008 5.64914 7.41541 3.95935 3.91097 7.08643 2.18447 3.3892 2.35851 1.79046 1.71606 1.62405 1.24705 1.17356 1.15363 1.78198 3.04948 1.07584 1.19165 1.77445 1.60938 0.690697 0.479967 2.89148 0.381192 0.267382 0.4934 0.303373 3.27267 0.0758033 0.840346 0.00901819
threshold=5.5000000000000009 25.500000000000004 1662.5000000000002 67.500000000000014 23.500000000000004 2709.5000000000005 14.500000000000002 -0.13533053922320934 12.500000000000002 13.500000000000002 -1.1578538528907745 -1.7166869420935538 8.5000000000000018 11.500000000000002 1474.0000000000002 656.50000000000011 1392.5000000000002 8.5000000000000018 1778.5000000000002 18.500000000000004 2.5000000000000004 7.5000000000000009 43.500000000000007 2527.0000000000005 2102.5000000000005 -0.043912358002655902 7.5000000000000009 882.50000000000011 1184.5000000000002 -0.21350797789979536 1849.5000000000002 -1.3990562133262412 -1.5195176902644942 1997.5000000000002 9.5000000000000018 1.4367549182282764 808.50000000000011 738.50000000000011 1392.5000000000002 1443.5000000000002 0.14498048956494322
decision_type=2 2 2 2 2 2 2 2 2 2 2 2 2 2 2 2 2 2 2 2 2 2 2 2 2 2 2 2 2 2 2 2 2 2 2 2 2 2 2 2 2
left_child=3 4 12 9 5 6 8 -4 15 18 11 -11 22 26 -15 -2 17 40 31 23 -18 -19 -3 24 30 -26 33 -28 -29 -30 -20 32 -1 -12 38 36 37 -36 -33 -40 -17
right_child=1 2 7 -5 -6 -7 -8 -9 -10 10 13 -13 -14 14 -16 16 20 21 19 -21 -22 -23 -24 -25 25 -27 27 28 29 -31 -32 34 -34 -35 35 -37 -38 -39 39 -41 -42
leaf_value=-0.011627495859245208 -0.011520543745004904 0.017140856238518916 0.065248552857577483 0.022588155512973666 -0.011693320469985483 0.036522043037241554 0.030403010812649216 0.040160512936310705 0.020371458365969399 -0.011371052686262833 -0.011764625686823751 0.022808512637935451 0.02730228809295485 -0.011555622606793894 0.015585156116541668 -0.0024764392869239204 0.0028652607527544114 0.0068745936451834371 -0.00095336040473862683 0.0067400298790475585 -0.01179440724030997 0.021848792217125566 0.0056150972424065309 -0.011709923529828551 -0.011305407388756445 0.010711771108040613 -0.011539762693885604 0.0079356302421512773 0.0034603114268510309 -0.011639887365051563 -0.01163783163808824 -0.011800471667777241 0.0095301348188288233 -0.0055879880582453013 -0.011680348629256567 -0.0024616326776184211 -0.011741618876777046 0.010679632805261016 -7.6663279937674937e-05 -0.011695653012643198 -0.0009448195821128892
leaf_weight=3.9775062445551157 2.2485977886244752 2.3290991596877593 3.9653755016624928 2.6386318244040003 4.4663398377597323 2.103070653975009 2.6909995023161164 5.2298710122704488 2.8272627275437108 1.2947117118164899 7.1094395900145226 2.2996410652995136 3.7576348846778274 2.2477738838642827 2.9071744829416275 1.2539221886545404 1.5551362475380299 1.828789475373924 1.0712139485403875 1.2243080316111434 2.7910194071009755 1.3309296909719703 2.5738841332495213 5.0605988735333076 1.3659932399168613 2.0282348478212953 2.2958111707121125 1.7306589297950266 1.4937783498317005 2.4569938406348228 3.5655044550076127 37.504512957297266 1.0590697396546591 1.8950891038402913 5.4142074799165121 1.2574927853420366 8.2553870454430562 1.0009781913831828 0.98946945648640294 5.5781084597110748 1.0680023739114402
leaf_count=246 123 65 60 90 250 74 106 92 107 59 382 107 95 111 108 64 71 83 58 61 96 54 75 273 76 110 121 85 66 107 199 2327 64 88 336 75 489 59 59 330 55
internal_value=0 0.018735 0.0354876 -0.00743051 0.00629281 0.0103965 0.00714884 0.0513677 0.00283445 -0.00819799 -0.00287856 0.0105138 0.018366 -0.00507788 0.00375417 -0.0013597 0.00102649 0.00706749 -0.00991906 -0.00614937 -0.00658453 0.0135002 0.0112453 -0.00738255 -0.00458244 0.00180438 -0.00776308 -0.0045961 -0.00168986 -0.00596752 -0.00921747 -0.0107418 -0.00711279 -0.0105149 -0.0110382 -0.00960235 -0.0102006 -0.00811818 -0.011542 -0.00996333 -0.00181757
